tree
version=v3
num_class=1
num_tree_per_iteration=1
label_index=0
max_feature_idx=18
objective=regression
feature_names=site_id building_id meter square_feet year_built floor_count air_temperature cloud_coverage dew_temperature precip_depth_1_hr sea_level_pressure wind_direction wind_speed dow hour month mean_reading median_reading primary_use_enc
feature_infos=13:9:2:14:3:15:5:4:0:6:8:1:10:7:12:11 1297:1249:1298:1294:1259:1241:1295:1301:1232:1296:1293:1299:1090:931:1312:753:885:886:946:1191:987:991:994:1185:177:797:1119:210:1324:224:791:1234:216:1073:1303:279:287:1265:1290:201:1331:774:889:963:1167:1227:1233:221:875:974:983:1311:244:250:260:1236:1258:1302:906:202:1022:1272:284:995:1104:1121:168:1109:1252:206:247:955:1219:1228:767:962:793:795:916:920:1211:1319:801:953:1164:176:192:879:890:914:928:929:1143:1159:1276:1292:169:190:915:917:175:183:264:880:911:966:1237:1244:921:922:1243:200:254:802:901:948:972:973:796:1030:1169:1223:1289:246:878:893:951:1246:1286:213:996:1092:1162:1168:1220:1250:1263:1270:1322:253:771:888:1094:1139:1275:1284:1323:191:770:894:945:1018:1080:1097:1151:1158:249:887:903:925:957:969:993:1274:799:924:1088:1230:971:1140:1150:1163:1212:1238:1251:1262:1271:187:220:896:1032:1079:1260:1273:1283:1310:166:212:215:217:263:750:765:961:964:978:1129:1253:1254:927:979:992:1152:1239:236:907:918:958:1000:1148:1157:1206:1210:163:912:1133:1269:240:952:1207:1268:1318:898:900:976:989:1031:1240:1245:171:932:968:1321:967:1224:1248:1287:1288:1309:248:926:1003:1189:1235:1329:910:1098:1154:1176:1255:179:209:225:776:997:1242:794:949:956:1341:226:798:905:908:1156:1107:1214:1307:747:800:899:998:1225:167:803:960:980:203:787:1093:255:1317:954:1229:1247:195:228:239:1308:895:959:1028:981:1300:1396:1285:1266:942:1343:1291:1384:1326:1226:234:1218:1306:1348:1383:913:965:1367:1347:1391:1381:1342:1344:1382:1332:1386:1267:1377:1339:769:1345:1358:1409:184:1394:1336:1337:1351:1379:1361:1375:1355:1144:1100:1350:119:219:231:1089:766:1363:113:1074:1124:1136:188:162:1015:1405:256:286:778:1146:144:252:1072:1102:1412:173:745:1008:1137:1171:1390:1177:1193:1208:1315:174:923:1013:259:784:933:1012:1099:1366:170:265:281:891:1095:1400:257:975:1084:1127:1178:1180:1108:1122:1149:1172:1216:106:1197:1203:114:759:1085:1105:934:1001:1198:1200:1231:112:121:758:874:204:208:285:290:764:1217:1256:1264:205:229:258:282:1086:1130:883:1075:1126:1106:1420:990:1070:1196:214:235:271:1174:1209:207:267:277:777:1021:1111:1360:238:789:1009:1029:1077:1083:1187:1202:109:172:245:935:1160:1280:145:194:876:1091:1117:1161:189:237:755:1142:222:1017:1147:1413:117:178:790:232:792:1101:1186:1395:1424:138:180:197:198:273:233:268:181:1418:1431:1011:1353:1407:1438:139:1076:1078:1305:1376:1184:1179:1359:1387:1354:1392:1425:1378:1442:161:780:1398:1417:1369:1389:748:1411:1410:1404:270:1434:1436:1368:1402:762:1364:1401:1338:1346:1433:1437:1352:751:1328:1201:1334:1414:1333:1406:1362:13:75:92:1427:1430:15:43:78:103:14:76:95:1357:1380:30:28:7:726:1408:9:193:31:60:96:806:91:383:479:623:648:1188:343:697:55:478:614:671:781:882:589:1041:97:605:618:943:426:700:999:1135:118:199:241:338:398:445:520:633:737:1205:158:386:394:412:424:615:865:143:331:441:564:817:837:855:863:1033:1039:1040:1062:1181:1325:29:50:136:142:289:400:406:435:545:628:660:702:728:746:937:939:982:1175:111:300:328:392:453:650:704:706:867:1065:1110:1118:1155:124:293:306:309:380:440:496:515:672:676:727:1023:1113:1125:82:128:141:356:410:430:457:503:507:532:566:640:662:693:699:805:877:1138:1182:1279:126:182:381:382:402:437:444:538:582:600:603:730:782:892:1057:1132:1153:115:127:288:355:405:448:491:584:601:632:641:644:663:701:720:1199:107:133:147:294:319:342:349:370:377:393:428:443:466:472:546:559:571:617:646:651:657:721:768:986:1056:137:150:153:165:292:297:322:324:335:337:388:408:434:451:481:541:590:611:629:639:656:680:708:711:725:742:785:820:859:902:936:977:1141:1277:1282:129:132:146:223:261:278:357:363:364:365:369:387:425:429:446:492:540:586:654:678:683:689:729:734:738:853:985:1020:1025:1053:1069:1071:1183:130:149:154:301:303:333:340:350:436:460:480:482:505:510:562:637:707:724:773:872:940:120:419:464:470:475:536:620:670:687:698:715:718:788:827:941:1007:1043:1044:1194:1448:164:299:308:313:358:361:371:391:473:483:484:504:513:531:537:563:579:595:609:616:630:635:710:712:713:731:735:740:858:970:1096:122:160:242:314:325:351:353:396:413:423:438:452:518:521:523:526:534:543:544:556:574:592:606:634:666:685:691:695:733:761:841:856:904:1055:1123:1165:1213:1313:105:243:269:311:323:329:352:373:374:379:427:456:477:486:524:530:533:547:573:596:631:653:848:1026:1051:1058:1222:1304:1316:108:148:159:296:359:404:422:447:474:498:512:516:519:529:554:585:598:622:658:661:669:688:732:744:809:834:984:1016:1035:1049:1082:1128:1195:1261:1320:116:125:185:186:295:312:320:336:366:416:465:485:502:539:575:576:599:642:692:739:822:833:847:857:1054:1060:1067:1116:1170:151:218:321:332:344:362:399:432:463:499:501:517:612:682:741:775:813:818:828:988:1047:1050:1052:1131:1173:1435:140:155:196:230:266:275:304:305:368:385:407:489:550:552:580:619:649:668:816:825:849:897:938:1002:1034:1046:1081:1192:1415:110:123:315:330:378:401:439:468:509:548:565:581:636:638:673:779:814:909:930:950:1027:1403:131:291:302:317:339:345:346:354:417:418:431:454:459:461:462:467:471:488:511:560:588:594:610:652:659:703:716:743:760:823:830:842:845:854:861:864:869:1019:1068:1087:1120:1166:1372:98:280:411:597:627:643:664:719:851:1042:1061:1221:134:326:348:397:415:421:476:493:522:553:558:570:583:655:723:749:756:826:835:843:844:947:1036:1114:1215:1257:1314:1399:316:318:495:551:561:578:645:694:722:736:811:852:881:919:1048:1066:1145:1278:1330:1370:1393:334:367:372:542:569:593:608:613:665:675:763:824:831:1112:1115:1349:1416:1429:157:211:347:433:449:458:497:514:527:684:705:714:873:1010:1385:3:227:272:360:414:490:494:535:681:709:754:810:839:862:868:1064:1327:1426:135:156:251:283:455:508:525:772:804:821:846:944:1038:1059:1388:274:276:298:375:384:409:500:506:557:572:674:690:832:838:870:884:1014:1103:1134:1190:1204:262:307:327:341:389:577:677:679:686:1356:1371:1397:1439:152:376:395:469:836:860:1340:74:587:850:1037:1063:1365:549:829:1447:624:696:1419:1428:94:310:625:626:717:815:1045:1446:667:757:786:871:1443:5:48:52:390:442:808:1374:1445:4:6:26:90:840:1004:450:866:1421:1422:1432:1441:11:17:812:1373:25:38:44:54:807:23:24:32:51:81:85:819:1335:1423:0:10:62:65:73:12:57:100:1005:1281:36:77:1444:22:66:68:99:752:1440:2:33:47:69:39:45:487:35:58:63:79:1006:8:18 1:2:3:4 [283:875000] [1900:2017] [1:26] [-28.899999999999999:47.200000000000003] [0:9] [-35:26.100000000000001] [-1:343] [968.20000000000005:1045.4000000000001] [0:360] [0:19] 7:6:4:1:2:5:3 9:13:22:6:16:17:14:0:2:8:23:3:10:20:4:7:5:11:1:18:15:21:12:19 10:7:12:9:8:11:5:6:1:4:3:2 [0:11.390485282069765] [0:10.802027153034762] 1:7:2:5:10:4:8:9:6:16:3:13:12:14:15:11
tree_sizes=3900 4743 4211 4546 4583 4684 4700 6135 6682 6325 6117 6921 7878 8200 6696 3286 5011 3183 3483 3785 3165 3263 6687 6682 4699 3024 6479 7708 3661 3478 2934 3018 7092 3024 3488 3027 6288 3380 3798 2937 6254 4822 5803 4031 3798 5301 3863 3430 4047 3375 3385 3252 3542 7705 5911 3487 3804 4674 3354 3871 3780 3440 3418 3329 3545 3686 3707 3397 6846 6057 4522 8175 4022 4494 3556 3243 3591 3133 3595 3329 4619 3895 3786 3670 3595 4110 3678 3680 3401 6071 4066 3287 7391 3665 4134 3466 7594 3511 3357 3271 4112 3918 3487 3902 3240 3403 4910 3472 6824 3977 3890 3293 6944 6632 4201 5569 4497 4227 3191 3337 3559 3459 3776 7167 3519 3508 4344 4069 3880 3738 3641 3248 3803 3350 7705 4859 3594 6084 4236 4836 3674 3780 3550 3060 3193 3357 3529 3744 3701 3653 3761 3322 3493 3856 3897 8214 5065 7628 4136 3343 3933 3818 3642 3353 3705 4089 7716 3445 3700 3494 3767 3351 3133 3753 3148 3519 3269 3745 3548 3338 7009 4127 3264 3386 3499 3697 3230 6548 4565 3675 3872 3505 3614 3800 3358 7587 3183 4196 3968 3864 6111 5801 4089 3933 3908 7839 7190 4006 4877 3366 3922 3728 3307 3292 3499 3765 6034 3814 3197 3495 3465 6968 4839 3952 3632 6038 3802 3287 3944 4267 3823 3366 3247 7378 3852 3986 6013 4019 3310 3461 3414 3196 3708 3280 3653 3552 7700 4176 3602 3366 7742 3400 3542 3363 3581 3226 3870 3613 3620 3890 3437 3527 3272 3186 3614 3398 3357 7544 3204 3872 3899 3071 3778 3434 3650 3742 3598 6438 3685 3148 4251 2940 3114 5774 3500 3646 3438 5394 3705 3379 3887 7333 4083 3367 3581 3490 3878 3502 3381 7213 3207 3768 3379 3353 3783 3847 3102 3599 7791 3289 3697 3549 7675 3942 3172 7291 4411 3420 3584 3305 3486 3909 3708 3880 3245 3486 3510 3715 7105 3008 3169 5448 4017 3499 3177 3346 3078 6965 4023 4290 3516 3468 3815 3352 5113 3946 3507 7614 4214 3511 3574 3625 3271 3405 3624 3799 7668 3636 3212 3529 3566 2988 3437 3506 3697 8257 3795 3449 3752 3628 3318 3762 8067 6754 3254 3102 3320 3103 3523 3602 7636 3601 3685 3228 3323 3661 7809 3798 3824 3743 7527 3838 3622 3206 3514 4074 3348 3430 3777 3598 7386 3456 7455 3830 3443 3333 3315 3208 3311 3425 4588 3414 3215 3872 3565 3033 3506 7301 4016 3233 3292 3182 3594 3345 3524 3032 3460 6675 4459 6871 3794 3444 3744 3812 3226 3485 5810 3903 3770 3919 6729 3873 3301 3765 3197 3525 7653 3347 3777 3578 3692 3614 3402 3213 3785 3580 6186 3947 3802 3457 3254 7712 3684 3377 3431 3060 3565 5592 3250 3893 3260 3328 3492 5341 6401 3785 3190 3168 5178 3490 3284 3495 3536 3754 6664 5332 3396 3387 3670 3440 3164 7894 3637 3398 3591 3414 3695 3598 3467 3232 3590 3407 3081 3903 3276 3830 3860 5667 4175 3866 3462 3545 2942 5666 3362 3637 3275 3577 3299 3270 7307 3796 4348 3675 3167 3238 3594 3033 2865 5584 6359 3551 3556 3801 3707 3314 3654 3067 3559 4797 3892 3378 3588 3754 3494 3301 3852 3261 3611 3197 3412 3716 3496 3614 5362 3921 5406 3603 3509 3795 3833 3435 3207 6963 3690 3125 3386 3125 3249 3338 3115 3715 3511 3436 3006 3627 3480 3631 2819 3556 3243 2843 3391 3175 3733 6992 4276 3734 3445 3351 3396 3693 3550 3799 7523 6035 4089 3665 3688 3268 3841 3724 3507 3393 3264 3351 6551 3976 3924 3585 3584 3418 3400 3389 6541 3896 3522 3593 3518 3230 3492 3745 6846 3558 3203 6512 4002 3367 3570 3376 3855 3671 3420 3181 3202 7005 3843 3536 3816 3154 3646 3687 3253 3739 3323 3244 3259 2790 3485 3520 3463 3345 6086 3456 3331 3734 3286 3308 3395 3710 3376 3513 7206 3136 3322 3695 3304 3065 3532 3281 3207 3953 3131 3164 6663 5104 3542 3663 5631 3864 3380 3440 3515 7222 3794 6196 3608 3216 6862 4274 3625 3572 3609 3410 3412 3459 5586 3246 3857 3433 3316 3499 3307 3544 3481 3629 3484 7115 3600 3450 3434 3245 3224 5647 3830 3741 3449 3367 3367 5259 3373 3935 3673 3831 3508 3417 5455 3663 3560 5226 3875 3739 3746 2992 3347 5681 3467 3392 3959 3772 3498 3839 3525 3508 3792 3811 3502 3442 5082 3375 3398 3514 3495 3690 3430 3223 3468 5813 3704 3433 3876 4325 3497 3547 3734 5246 4049 3351 6401 3384 3219 3666 3416 3496 3853 6086 3461 3687 3597 3319 3408 3320 6524 3446 3579 3147 3531 3251 3505 3582 3766 3062 3395 3291 3384 6388 3811 3616 3568 3530 3458 3392 3481 3516 3370 3286 3177 7018 4335 3895 3410 5871 3925 3574 3405 3439 3298 3705 3158 3534 3477 3275 3436 3974 3548 3582 3644 3256 3594 3405 5915 3108 3652 3425 3419 3257 3773 3370 3620 2951 6410 3496 5562 3245 3764 3449 3404 3835 3734 3303 3380 7221 4415 7731 3411 3839 6484 3283 3237 3748 3696 3833 3341 3106 3301 3556 3440 3493 3492 3818 3988 3586 3775 3197 3447 3844 3305 6693 4289 3379 3209 3952 3494 3420 3178 3111 3529 4660 3544 3517 4067 3252 3201 3595 3310 3223 5695 3831 3613 3268 2971 3241 3097 3510 2940 3724 3370 3720 3426 3416 3405 3025 6865 3292 3441 3422 3730 4707 4017 3524 3443 2904 3347 3414 2969 3481 3884 3754 3362 2956 3664 5461 3817 6235 3204 3408 2835 6423 5663 4147 3488 3496 3505 3563 3799 3356 3310 3085 5879 5014 3474 3428 3857 3635 3178 3695 3225 5844 3922 3409 3827 3481 3291 3736 3464 3442 3288 3275 3046 5307 3070 3158 3592 3204 3280 2994 2848 3285 3274 6523 3552 3255 3563 3258 3176 2956 2884 6472 3697 3621 3933 2923 3026 3336 3636 3549 3639 3419 3543 3462

Tree=0
num_leaves=31
num_cat=29
split_feature=18 0 0 1 1 18 18 0 18 1 0 15 0 1 1 0 15 0 15 15 1 15 1 15 1 5 0 15 1 15
split_gain=1.59198e+06 1.27075e+06 569041 424830 400191 423414 261590 234623 224147 202139 105831 180801 154498 103725 88024.2 72150.9 69881.3 222062 145934 59032.1 54812.8 59642.8 65225.6 51463.7 192697 46322.2 40742.3 97025.9 40209.1 29607.4
threshold=0 1 2 3 4 5 6 7 8 9 10 11 12 13 14 15 16 17 18 19 20 21 22 23 24 1.5000000000000002 25 26 27 28
decision_type=1 1 1 9 9 1 1 1 1 9 1 1 1 9 9 1 1 1 1 1 9 1 9 1 9 8 1 1 9 1
left_child=15 8 3 -3 -4 7 10 9 -2 -6 11 12 -5 -8 -7 -1 26 19 25 -18 21 22 -15 24 -16 -19 27 -9 -25 -13
right_child=1 2 4 6 5 14 13 16 -10 -11 -12 29 -14 20 23 -17 17 18 -20 -21 -22 -23 -24 28 -26 -27 -28 -29 -30 -31
leaf_value=4.890020517055806 5.6422821057471904 2.9528621679714959 4.5446345285194054 4.1177273907420835 2.6323055746255606 3.5347906736285433 4.778516341438829 3.913291398427595 4.6446064383127181 3.8351346557790436 3.8900665703549229 4.3028207484534065 5.3895799938327951 4.6375949824126401 1.6980776738926249 4.6320559273111419 2.4637609642531979 2.7274220312357951 2.5491769571123655 4.0435834197183258 4.2570881351313048 4.8401509670571699 2.5737600726489833 4.5263241190437933 4.1324390440168957 4.0610618903783857 2.6945498968670467 2.7068447799482733 4.1075837646071101 3.9961552898637955
leaf_weight=1678150 510869 295170 519807 176424 158112 286158 534691 110947 402753 1200430 2735423 392793 208246 36567 39108 3064117 25499 34196 357624 325053 2909066 314285 26334 337932 192701 109254 419935 167060 713408 1586040
leaf_count=1678150 510869 295170 519807 176424 158112 286158 534691 110947 402753 1200430 2735423 392793 208246 36567 39108 3064117 25499 34196 357624 325053 2909066 314285 26334 337932 192701 109254 419935 167060 713408 1586040
internal_value=0 -0.158498 -0.231987 -0.0846343 -0.503708 -0.60013 -0.0455751 -0.826031 0.984683 -0.522667 -0.193819 -0.0388292 0.588472 0.152252 -0.181507 0.505542 -1.09199 -0.899706 -1.32682 -0.289181 0.0857912 0.444452 -0.444372 -0.0696607 -0.49615 -0.474624 -1.3266 -1.02952 0.0243793 -0.160774
internal_weight=0 1.51259e+07 1.42123e+07 9.21504e+06 4.99722e+06 4.47742e+06 8.91987e+06 2.90811e+06 913622 1.35854e+06 5.09893e+06 2.3635e+06 384670 3.82094e+06 1.56931e+06 4.74227e+06 1.54957e+06 851626 501074 350552 3.28625e+06 377186 62901 1.28315e+06 231809 143450 697942 278007 1.05134e+06 1.97883e+06
internal_count=19868152 15125885 14212263 9215039 4997224 4477417 8919869 2908110 913622 1358542 5098926 2363503 384670 3820943 1569307 4742267 1549568 851626 501074 350552 3286252 377186 62901 1283149 231809 143450 697942 278007 1051340 1978833
cat_boundaries=0 1 2 3 42 88 89 90 91 92 116 117 118 119 144 186 187 188 189 190 191 229 230 268 269 311 312 313 358 359
cat_threshold=712 3 12892 0 0 0 0 0 0 0 0 536870912 0 0 0 0 0 0 0 0 0 33554432 37 17 0 0 570425344 1024 0 0 0 0 0 0 0 0 1064960 4104 16 4 524293 64 0 0 0 0 0 0 0 0 0 0 0 0 0 0 0 0 0 0 0 0 3221291008 0 0 0 0 0 0 0 0 0 0 0 0 0 0 0 0 0 268435456 4194304 0 14328 51445760 521216 266241 80 6 18434 3232 2 0 0 0 0 0 0 0 0 0 0 0 0 0 0 0 0 0 0 0 0 1073479680 1030 0 448 8212 6 8208 0 0 0 0 268435456 192 75562016 106514 1073741824 32768 64 0 134218752 0 0 880803840 0 0 0 0 0 0 0 9437184 526384 0 0 0 0 0 0 0 0 0 0 0 0 0 0 0 0 0 0 0 0 0 0 0 0 0 0 0 0 0 0 0 25166336 14 0 0 0 0 0 0 0 4261412865 1 49680 242 32768 12 12 0 0 0 0 0 0 65536 0 0 136314944 1179648 537436160 4194304 131204 2056 262144 2165309440 8 4 64 0 0 0 4202496 8776 0 0 0 0 0 0 0 0 0 0 0 0 58720256 6144 0 0 0 0 0 0 65536 0 0 0 0 8192 0 0 0 0 0 8 4 64 0 0 0 4202496 8776 0 0 0 0 0 0 0 0 0 0 0 0 58720256 48 0 0 0 0 0 0 0 0 0 0 0 0 0 0 0 0 0 0 0 0 0 0 0 0 0 0 0 0 0 0 0 0 0 0 0 0 0 0 704643072 2097152 9437284 2 16384 18 0 0 0 0 0 0 0 0 0 0 0 0 0 0 0 0 0 0 0 0 0 0 0 0 0 0 0 0 0 0 0 0 0 0 0 0 0 0 721944576 27525120 9437292 2 0 0 131072 24
shrinkage=1


Tree=1
num_leaves=31
num_cat=28
split_feature=1 1 15 0 0 0 15 1 1 1 1 15 1 1 8 18 15 18 1 15 15 1 1 1 15 0 15 1 10 1
split_gain=44018.2 37464.2 38636.2 82350.9 32392.4 30753.9 25982.7 21334.9 17096.3 12611.3 10625.9 11044.6 8303.64 8185.02 9683.87 9431.85 8894.57 38585.1 17857.6 35486.9 17267 27676.6 10057.1 10053.3 14996.4 10071.3 8083.07 8243.7 55566.6 7665.03
threshold=0 1 2 3 4 5 6 7 8 9 10 11 12 13 16.450000000000003 14 15 16 17 18 19 20 21 22 23 24 25 26 1016.4500000000002 27
decision_type=9 9 1 1 1 1 1 9 9 9 9 1 9 9 10 1 1 1 9 1 1 9 9 9 1 1 1 9 10 9
left_child=-1 2 3 6 -4 7 -2 -3 -7 -10 -9 -12 -13 -11 16 26 17 20 19 -18 21 -15 -19 24 25 -20 27 28 -16 -28
right_child=1 5 4 -5 -6 8 -8 10 9 13 11 12 -14 14 15 -17 18 22 23 -21 -22 -23 -24 -25 -26 -27 29 -29 -30 -31
leaf_value=0.33166296533100986 -1.8351838469096167 -0.20118598081482422 0.42984924301618471 -0.29936240054858138 -0.42650177455393634 -0.22833213054174556 -4.1379296263803065 -0.10707726362227714 -0.18985047441250677 0.13593439755465847 -0.028436935614807486 0.21725630337767737 0.054658259044482085 -1.5706594486518719 -0.16918375382179029 0.063205999460870882 0.27744529935007822 0.32441853593369685 0.99056830854891698 -0.87997385533384986 -0.33013077676258362 -0.22067969234932502 -0.074427103143794041 -0.021455596291366855 -0.017238815408332629 0.27178607902141655 0.13385768076459373 -0.14728285714813694 -3.6514197052689354 -0.12264221956122071
leaf_weight=392243 14631 379408 65556 51181 135362 500198 7413 469989 504789 298250 1651407 326127 8496581 33061 27518 1542717 44383 65672 30743 65693 168473 28106 1687894 2122967 118730 53316 181517 73491 5498 325238
leaf_count=392243 14631 379408 65556 51181 135362 500198 7413 469989 504789 298250 1651407 326127 8496581 33061 27518 1542717 44383 65672 30743 65693 168473 28106 1687894 2122967 118730 53316 181517 73491 5498 325238
internal_value=0 -0.00668467 -0.373741 -0.995555 -0.147082 -0.00144402 -2.61108 0.0319373 -0.0494234 -0.037294 0.0400194 0.0466199 0.0606689 -0.0260896 -0.0334394 0.0215042 -0.0602456 -0.109966 -0.0197635 -0.413316 -0.495403 -0.950486 -0.0594884 -0.00113531 0.211585 0.534754 -0.0834 -0.333811 -0.748837 -0.0307645
internal_weight=0 1.94759e+07 274143 73225 200918 1.92018e+07 22044 1.13235e+07 7.87825e+06 7.37806e+06 1.09441e+07 1.04741e+07 8.82271e+06 6.87327e+06 6.57502e+06 2.15598e+06 4.41904e+06 1.98321e+06 2.43583e+06 110076 229640 61167 1.75357e+06 2.32576e+06 202789 84059 613262 106507 33016 506755
internal_count=19868152 19475909 274143 73225 200918 19201766 22044 11323512 7878254 7378056 10944104 10474115 8822708 6873267 6575017 2155979 4419038 1983206 2435832 110076 229640 61167 1753566 2325756 202789 84059 613262 106507 33016 506755
cat_boundaries=0 39 81 82 83 84 85 86 132 165 197 243 244 286 318 319 320 321 352 353 354 385 416 447 448 449 450 484 518
cat_threshold=0 327680 131072 0 0 0 0 0 536870912 0 0 557056 0 0 128 880803840 75497472 4112 32 0 65536 0 0 0 0 0 0 0 0 0 0 570425344 16384 6356992 1342177280 134217728 2281701376 77824 4 1024 47104 0 0 512 0 0 0 0 0 37748736 32 0 1048576 1073741826 0 538968097 0 174065152 262181 17 0 0 0 0 0 0 0 0 0 0 0 0 0 67141632 0 4194304 0 0 0 0 268435456 448 8 8 57784 320 0 0 0 0 0 0 0 0 0 0 0 4268032 0 0 0 0 0 8 4 64 0 17 0 0 0 270532928 1946157312 0 0 0 0 0 0 0 0 0 0 58720256 2415919104 131072 0 0 1048608 138412032 268468384 128 0 0 0 0 1095241728 2048 64 4194304 2216296448 0 0 0 0 0 0 0 0 0 0 0 0 0 0 908216832 479239 0 0 0 0 0 0 0 12 0 0 0 0 572833792 268701696 65550 16388 4481792 4 0 0 0 0 0 0 0 0 0 0 0 0 0 65536 1024 0 0 0 0 0 0 1142557056 0 0 0 0 0 0 0 0 0 32768 64 0 134217728 0 1048576 0 0 0 0 0 0 0 0 0 0 0 0 0 0 0 0 0 0 0 0 0 1075838984 536903680 17301504 25427968 8 0 2097152 4063756288 214786 1 24 0 0 0 0 0 0 0 0 0 136314944 1179648 536870912 4194304 163972 2056 262144 2165309440 2147483648 2048 0 0 0 0 0 0 8388608 0 0 0 0 0 0 0 1048576 8 16 4 5 134217792 0 1048612 2 536870912 524288 5680 2147483649 1535 48 128 786432 0 0 0 0 0 0 0 0 0 0 0 0 0 0 0 134217728 0 0 0 0 0 0 1024 427820544 12420 870 2052 0 0 0 0 0 0 0 0 0 0 0 0 0 0 0 0 0 0 0 0 0 0 0 0 1048576 0 0 10504192 2147485184 2129680 2088 24 2 0 0 0 0 0 67108864 0 0 0 0 0 0 0 0 0 0 0 0 0 0 0 0 0 0 0 0 0 16908288 302131200 1112571968 9994368 2164418713 272629762 1207977984 0 0 0 0 0 0 0 0 0 0 0 0 0 0 0 0 0 0 0 0 0 0 0 0 10504192 1536 2124544 2088 8320 0 134217728 0 0 0 256 1107300360 151001152 2 0 0 0 0 0 0 0 0 0 0 0 0 0 0 0 0 0 16908288 302131200 1112571968 9994368 6144 4 128 0 0 0 0 8192 0 0 8 64 0 0 0 0 0 0 0 0 0 0 0 0 0 0 0 0 0 0 16908288 302131200 1112571968 9994368 0 2097152 24 0 0 0 0 201465856 0 0 0 0 0 0 0 0 0 0 0 0 0 0 0 0 0 0 16811008 0 0 0 16908288 302131200 1112571968 9994368 0 604571648 544
shrinkage=1


Tree=2
num_leaves=31
num_cat=25
split_feature=1 1 0 15 1 15 1 1 15 1 1 15 1 15 3 18 15 1 1 18 4 15 0 0 15 10 1 5 0 10
split_gain=8390.29 4960.76 4986.18 5658.58 22726.3 102430 17315.8 6146.31 8013.28 9662.76 5748.01 5057.15 4467.75 3370.42 8555.02 3351.65 3788.6 4494.35 3241.49 3226.78 9401.57 5824.16 27797.6 11682.2 5560.62 3798.77 3644.65 7887.35 3606.4 4243.2
threshold=0 1 2 3 4 5 6 7 8 9 10 11 12 13 348028.00000000006 14 15 16 17 18 2015.5000000000002 19 20 21 22 1031.2500000000002 23 1.0000000180025095e-35 24 1005.4500000000002
decision_type=9 9 1 1 9 1 9 9 1 9 9 1 9 1 2 1 1 9 9 1 10 1 1 1 1 8 9 10 1 8
left_child=-1 -2 3 4 5 -3 11 8 9 -6 13 -5 -10 14 -8 16 17 -4 -19 -18 21 22 24 -23 25 -21 -24 -28 -25 -30
right_child=1 2 15 6 7 -7 10 -9 12 -11 -12 -13 -14 -15 -16 -17 19 18 -20 20 -22 23 26 28 -26 -27 27 -29 29 -31
leaf_value=-0.13013477088889502 0.1211427322026727 0.35415618510364255 0.14354104838015602 0.076520377036723861 0.95772122485451594 -1.7667645202481315 -0.28379404799399277 -0.0092989472678171384 -0.25880691081029972 0.14215365095106722 0.029646925427199974 0.51030798186689896 0.19138392386371042 -0.059421670842563959 -2.73145124929172 0.011486458369354054 -0.016510196451371698 -0.43285754996924086 -0.13735191236294433 -1.5484230417380886 -1.738979356576827 0.59079844501089251 0.017843315531561731 0.028848634128559963 -2.8098507980850234 0.68779468889971607 -0.21453356412742489 -1.6862151185885721 -0.83812070563342311 -0.1334633105525761
leaf_weight=483403 350409 56708 50536 37366 24781 38038 56499 4779018 37024 35119 6742607 95852 54453 141903 1465 2242683 3745959 42987 271974 6398 3465 28988 79008 188951 3588 862 80610 3814 8985 174699
leaf_count=483403 350409 56708 50536 37366 24781 38038 56499 4779018 37024 35119 6742607 95852 54453 141903 1465 2242683 3745959 42987 271974 6398 3465 28988 79008 188951 3588 862 80610 3814 8985 174699
internal_value=0 0.00324135 0.0010708 0.0133221 -0.0123378 -0.497434 0.0315458 -0.0030149 0.195362 0.479663 0.0246928 0.388651 0.00916729 -0.142429 -0.345597 -0.0203111 -0.0355135 -0.133277 -0.177696 -0.027252 -0.0967026 -0.0868233 -0.239478 -0.020574 -1.78889 -1.28115 -0.136531 -0.280986 -0.0681484 -0.167923
internal_weight=0 1.93847e+07 1.90343e+07 1.21008e+07 5.02514e+06 94746 7.07569e+06 4.9304e+06 151377 59900 6.94247e+06 133218 91477 199867 57964 6.93351e+06 4.69082e+06 365497 314961 4.32533e+06 579368 575903 174280 401623 10848 7260 163432 84424 372635 183684
internal_count=19868152 19384749 19034340 12100833 5025141 94746 7075692 4930395 151377 59900 6942474 133218 91477 199867 57964 6933507 4690824 365497 314961 4325327 579368 575903 174280 401623 10848 7260 163432 84424 372635 183684
cat_boundaries=0 45 91 92 93 111 112 130 168 169 181 215 216 228 229 230 231 273 319 320 321 322 323 324 370 371
cat_threshold=1024 0 0 0 512 0 256 1107300360 151001152 2 0 557056 1024 524288 0 0 0 0 0 0 0 8 0 0 8704 0 0 0 0 0 0 33554496 0 0 0 0 524288 0 2147483648 131072 0 8 16416 83886080 2112 0 0 131072 0 8396800 67108864 0 0 0 0 0 0 0 65536 0 0 0 0 0 0 2147549184 0 0 3221753856 384 8192 2147745792 8 0 65536 16777216 49152 67633152 568 0 0 0 0 0 0 0 0 134217728 4161 0 4 13102 6256 0 0 0 0 0 0 0 0 0 16876544 67371600 134545408 1224867844 2101280 268436480 0 138414080 1024 112 0 0 0 0 0 0 0 0 0 16876544 67371600 134545408 1224867844 2101280 268436480 0 138414080 1024 0 0 0 0 0 4325377 1073741840 393472 805314560 1 134219009 4196417 2181038080 2 0 134227136 0 0 0 0 0 1 0 0 0 0 0 0 0 0 0 0 8388608 0 0 0 0 25165824 6144 0 0 0 0 0 4325377 1073741840 131328 268443648 1 0 4194304 0 0 0 0 0 4325377 1073741824 256 805306368 1073741825 0 4194304 0 0 131072 0 256 16384 0 0 0 4192256 0 0 0 0 0 0 0 0 0 0 1111523328 5250 12 0 0 0 0 0 4325377 1073741840 131328 268443648 1 0 4194304 384 4198 2 0 0 0 0 0 0 0 0 0 0 0 0 0 0 0 0 0 0 33554448 5 17 0 0 0 1024 0 0 0 0 0 0 939525120 10 0 0 0 0 0 361472 1074366548 2360976 268435456 0 0 0 0 0 0 0 0 0 0 0 0 0 0 0 0 0 0 0 0 0 0 0 0 0 0 0 0 0 0 0 0 0 0 0 0 0 0 0 0 0 1813807104 67407892 1082131206 2922905600 170 4130 7168 1024 1024 5120 0 0 0 0 0 0 0 0 0 0 0 0 0 0 0 0 0 0 33554432 37 17 0 0 0 0 0 0 0 0 0 0 0 0 0 0 0 0 0 0 4194304 0 268449504 0 49152 0 64 32832
shrinkage=1


Tree=3
num_leaves=31
num_cat=24
split_feature=1 1 1 1 15 1 0 18 15 1 1 0 15 1 15 12 6 1 15 1 15 1 10 13 8 8 13 8 13 0
split_gain=3323.45 2953.08 2326.9 1880.45 1930.5 3837.3 3592.85 3870.67 5638.06 6426.33 5463.41 4774.89 2704.14 7170.02 4293.44 4371.81 4609.78 4239.85 2730.87 3042.92 2641.08 3731.36 11608.8 6726.23 4364.13 4265.19 3649.66 2932.26 4925.48 2796.17
threshold=0 1 2 3 4 5 6 7 8 9 10 11 12 13 14 5.4000000000000012 6.6500000000000012 15 16 17 18 19 1005.4500000000002 20 19.950000000000003 22.150000000000002 21 5.5500000000000007 22 23
decision_type=9 9 9 9 1 9 1 1 1 9 9 1 1 9 1 10 10 9 1 9 1 9 8 1 10 10 1 10 1 1
left_child=-1 -2 -3 -4 5 -5 7 8 11 -10 -11 -6 13 14 -8 -16 -17 18 19 -14 21 22 26 -24 27 -26 29 28 -25 -9
right_child=1 2 3 4 6 -7 12 20 9 10 -12 -13 17 -15 15 16 -18 -19 -20 -21 -22 -23 23 24 25 -27 -28 -29 -30 -31
leaf_value=-0.10419416309524152 0.098975842000855491 -0.078380267789997543 -0.063645096184888242 -0.16954173730860653 -0.034700740938168703 0.020640318611015226 -0.10331754821803484 -0.16268829504197005 -0.19642140628858362 -0.17130008855183207 -0.028276360776751414 0.0746455270113007 0.62294469860368418 -0.00079598056232139556 -0.34260021123028889 -3.162847334148156 -0.85907589699616305 0.021754682129614653 0.062973926548689982 0.17279767917930605 0.051050435929956173 0.043877250857810433 0.12419396775092806 -4.1182650979529036 -1.8817306406673764 -0.60317206738937579 0.056080365063488118 -0.019983800756731458 0.68861719196142068 -3.6472543174141467
leaf_weight=301479 306575 370941 431705 107940 983582 6167808 98909 282 324225 305967 2101309 672314 25464 2584015 44448 1012 6128 3912032 63931 36647 895889 72567 27957 460 3944 7709 459 10499 391 1564
leaf_count=301479 306575 370941 431705 107940 983582 6167808 98909 282 324225 305967 2101309 672314 25464 2584015 44448 1012 6128 3912032 63931 36647 895889 72567 27957 460 3944 7709 459 10499 391 1564
internal_value=0 0.00160421 5.42294e-05 0.00159455 0.00312049 0.017369 -0.00422005 -0.0234368 -0.0363458 -0.0642568 -0.0464554 0.00969536 0.0111279 -0.013154 -0.225326 -0.459187 -1.1856 0.0275712 0.208087 0.357418 0.0319959 -0.10366 -0.304633 -0.205403 -0.605773 -1.0359 -2.49978 -0.164692 -1.95 -3.11869
internal_weight=0 1.95667e+07 1.92601e+07 1.88892e+07 1.84575e+07 6.27575e+06 1.21817e+07 5.40912e+06 4.3874e+06 2.7315e+06 2.40728e+06 1.6559e+06 6.77259e+06 2.73451e+06 150497 51588 7140 4.03807e+06 126042 62111 1.02172e+06 125832 53265 50960 23003 11653 2305 11350 851 1846
internal_count=19868152 19566673 19260098 18889157 18457452 6275748 12181704 5409118 4387397 2731501 2407276 1655896 6772586 2734512 150497 51588 7140 4038074 126042 62111 1021721 125832 53265 50960 23003 11653 2305 11350 851 1846
cat_boundaries=0 38 84 126 171 172 208 209 210 211 243 275 276 277 323 324 369 370 390 391 433 434 435 436 437
cat_threshold=1 0 0 0 134218240 0 2097152 131072 8192 537002016 32768 25165824 65 8388608 134217729 1 1024 721024 0 0 545259520 0 0 8448 0 0 512 32 0 0 0 0 0 0 1073741824 0 8388608 8192 0 327680 0 0 0 0 0 0 0 0 0 4194304 0 2048 0 0 0 0 33554496 37 65537 0 0 0 0 0 32 0 0 1024 0 402654208 2362368 16384 0 2097152 0 2097152 0 0 0 8388880 512 4194304 8421408 128 16779280 0 1073741824 0 131072 0 4194320 0 0 0 0 0 0 0 0 0 0 0 0 33554432 289671168 18 0 4194304 72 4194432 81920 0 0 0 0 2166784 16777472 33554432 0 33554432 1048576 0 0 0 4 2 12 4194304 32 0 1024 0 16777216 0 0 0 0 0 0 0 0 128 0 0 0 0 0 0 0 134217856 0 132112 25165824 512 0 0 4194304 2684354560 138 256 0 0 4194304 16908288 134217792 65536 3145760 0 0 0 16 2690 2688573856 269484032 134240256 129 38309888 0 128 0 536870912 0 0 0 33554432 0 0 0 0 0 0 262144 0 0 0 0 0 1049088 33566720 0 0 0 0 0 0 0 67108864 1 27138 82338 1344 0 0 0 0 0 0 0 0 0 0 0 0 0 0 0 0 0 0 0 0 0 0 0 0 0 0 0 2319745024 620855474 2752249859 2283864850 18 0 0 0 0 73728 0 0 0 0 0 0 0 0 0 0 0 0 0 0 0 0 0 0 0 0 0 0 1679364096 1224478985 150994952 537153601 12 26624 1312 0 0 0 0 0 0 786689 1073741832 687872000 1 0 0 0 0 0 0 0 0 0 262144 0 0 0 0 0 0 0 0 0 0 0 0 0 0 0 0 0 0 0 0 0 2204123136 3225952640 2088 4194308 256 1280 3221233792 268435456 134219776 0 0 0 128 524288 536870912 268959744 2 67108864 0 0 0 4194304 262144 0 6292992 262144 0 0 0 0 0 0 0 0 0 0 0 0 268435456 24 0 0 0 0 0 0 0 4194304 2097408 167774208 1280 28 3221233792 268435456 134219776 0 0 0 0 0 536870912 0 0 0 0 0 0 0 0 0 6292992 262144 64 0 0 0 0 2048 0 0 0 0 0 0 0 0 0 0 0 0 0 0 0 0 0 0 0 0 0 0 16908288 302131200 1112571968 9994368 0 0 0 131072 0 0 8388608 0 4194304 0 5864 30 28 32 8194
shrinkage=1


Tree=4
num_leaves=31
num_cat=22
split_feature=1 15 0 15 1 15 1 1 1 15 8 0 10 10 0 15 6 1 15 13 6 13 1 12 12 10 13 1 1 1
split_gain=2378.91 1934.4 3935.14 1940.56 1742.97 1674.1 3358.41 3121.77 2508.47 1885.29 5271.7 5475.96 6670.79 2530.54 4720.04 3166.21 1923.36 2713.89 3208.71 4506.68 2315.34 1846.59 1774.39 1648.19 1633.18 1702.3 4585.07 1594.15 1583 1381.21
threshold=0 1 2 3 4 5 6 7 8 9 12.750000000000002 10 1011.7500000000001 1008.2500000000001 11 12 10.550000000000002 13 14 15 21.650000000000002 16 17 3.1500000000000008 5.4000000000000012 1018.85 18 19 20 21
decision_type=9 1 1 1 9 1 9 9 9 1 10 1 10 10 1 1 10 9 1 1 10 1 9 10 10 10 1 9 9 9
left_child=1 2 3 -1 -2 6 -6 9 -9 10 13 12 21 14 15 -7 -15 18 19 20 23 -12 -8 -18 25 -21 -27 -24 -10 -30
right_child=4 -3 -4 -5 5 7 22 8 28 -11 11 -13 -14 16 -16 -17 17 -19 -20 24 -22 -23 27 -25 -26 26 -28 -29 29 -31
leaf_value=-0.1813907510823024 0.065243181551774804 -0.015979850225658829 -0.10132318187806728 -0.85301373768374356 -0.11888080055180865 0.19639190400539194 0.093845267976965172 -0.1106570695544476 -0.075629841483725868 0.057882884226559281 2.6546089962277919 0.25121818328051154 2.5133307528614472 0.00071236046387971957 0.12674542872864222 -1.6219329733276366 0.32257427109604792 0.17434814307182353 0.16852462567083373 2.2078296601449066 2.1443522217150237 -1.2433655594555006 -0.088470042428938453 -1.3447334928218679 -0.62284642032390791 2.8904958070523223 -0.18056319114951952 -0.0055575572929373448 -0.065740235804514907 0.01319804627267295
leaf_weight=7078 422056 268029 175190 11036 270218 1385 175338 178629 215523 180543 136 4862 3142 20564 12783 3115 1880 25223 6417 3322 496 733 238046 866 302 798 1225 8958516 227617 8453084
leaf_count=7078 422056 268029 175190 11036 270218 1385 175338 178629 215523 180543 136 4862 3142 20564 12783 3115 1880 25223 6417 3322 496 733 238046 866 302 798 1225 8958516 227617 8453084
internal_value=0 -0.0709735 -0.147221 -0.590824 0.00168367 0.000270627 -0.00897288 0.00981043 0.00667026 0.116219 0.236914 0.967494 1.83055 0.154235 -0.183598 -1.0631 0.249806 0.376194 0.708243 1.09724 0.155443 -0.617086 -0.00580381 -0.203241 1.6367 1.76743 1.04425 -0.00770378 0.00902622 0.0111281
internal_weight=0 461333 193304 18114 1.94068e+07 1.89848e+07 9.64212e+06 9.34265e+06 9.07485e+06 267792 87249 8873 4011 78376 17283 4500 61093 40529 15306 8889 3242 869 9.3719e+06 2746 5647 5345 2023 9.19656e+06 8.89622e+06 8.6807e+06
internal_count=19868152 461333 193304 18114 19406819 18984763 9642118 9342645 9074853 267792 87249 8873 4011 78376 17283 4500 61093 40529 15306 8889 3242 869 9371900 2746 5647 5345 2023 9196562 8896224 8680701
cat_boundaries=0 45 46 47 48 94 95 141 187 225 226 227 228 229 270 271 272 273 319 320 365 407 449
cat_threshold=1082130944 0 0 0 272 2147483648 570425344 65 0 0 0 0 0 0 0 134217728 134217728 0 6292992 262144 0 0 0 0 524336 134217728 136 128 0 0 268435456 0 0 0 268435456 0 0 8388608 17301504 8388608 8 0 0 0 268435456 7684 16 516 16384 0 16384 0 0 0 0 0 32 0 0 4194304 0 0 0 0 0 0 0 64 65552 0 16384 4 0 0 0 0 0 0 8388608 262144 536940544 268435456 16781314 4096 0 525056 33 0 0 2097152 3221225600 40 4096 16 1874 0 524288 1536 0 1024 33554432 426901505 262176 0 0 0 65536 0 0 0 0 0 0 0 0 0 0 0 0 0 0 0 0 0 65536 0 8388608 0 33554432 0 0 0 0 671088640 2097152 9437284 0 2097152 134217728 40960 128 0 0 0 128 3072 2 23330816 0 536903680 256 0 65536 16 0 4 0 0 0 0 0 0 0 0 0 0 0 0 0 0 0 0 1073741824 0 0 0 0 0 0 167772160 2097152 9437284 0 2097152 704643072 134250656 128 0 327808 131072 0 8388608 67371009 2 4 4194368 4 131072 0 4195328 163968 2048 612368384 2147483648 0 0 0 0 0 0 570425344 1024 0 0 0 0 0 0 49152 0 0 134217728 0 4 4 40 16384 16384 8 0 0 0 0 0 0 0 0 536870912 0 0 0 0 0 0 0 0 0 0 0 0 0 0 0 0 0 0 0 0 0 0 0 0 0 0 0 0 0 167772160 2097152 9437284 32 12 12 0 337984 0 0 0 67108864 0 0 0 0 0 0 4195328 4 0 0 2147483648 0 1048609 2147483648 0 0 0 536870912 1024 2048 131088 533 0 0 0 8192 0 0 134217728 0 0 0 0 256 4098 16777216 16777472 0 0 256 192 0 0 16 0 2560 2097408 2148270592 0 0 0 0 4 0 65536 0 10304 0 2147483648 2048 0 2147483648 0 0 0 1048576 0 0 0 0 0 4194304 0 8388608 64 0 0 64 0 33554432 0 0 2 1034 33554432 1073742888 32768 0 0 0 136577024 268435456 1073741828 33570816 1049088 64 0 536872960 0 4 0 0 16777216 0 0 0 0 512 0 8388608 0 0 0 9216 4 36 0 0 67633154 1064960 1073741824 0 0 0 0 2147483650 0 268435456 0 0 268435456 0 0 4096 72 4352 335544320 0 1536 0 0 0 0 268435456 3145728 0 256 131072 136314880 64 0 1048576 0 0 541065216 512 0 8388736 0 0 134217728 0 8 16 2147483648 1 512 128 0 8192
shrinkage=1


Tree=5
num_leaves=31
num_cat=24
split_feature=1 1 1 1 1 15 0 15 0 15 1 8 1 15 1 10 13 8 13 15 6 14 10 15 0 1 1 15 8 1
split_gain=1560.3 1432.76 946.544 749.867 822.336 678.507 1592.58 2740.76 1298.42 1791.48 623.852 629.654 780.892 3572.63 5473.17 7853.28 3962.63 4819.32 1825.77 1009.64 887.615 876.269 1960.95 769.213 3422.47 3413.53 3079.37 7511.1 8442.27 3282.48
threshold=0 1 2 3 4 5 6 7 8 9 10 -6.0499999999999989 11 12 13 1009.85 14 1.6500000000000001 15 16 2.0500000000000003 17 1007.85 18 19 20 21 22 16.650000000000002 23
decision_type=9 9 9 9 9 1 1 1 1 1 9 8 9 1 9 8 1 10 1 1 10 1 10 1 1 9 9 1 10 9
left_child=-1 5 -3 -4 -5 8 7 -7 9 -2 -6 -12 13 14 15 16 17 18 -13 -15 -17 -19 -23 25 26 -14 27 28 -25 -30
right_child=1 2 3 4 10 6 -8 -9 -10 -11 11 12 23 19 -16 20 -18 21 -20 -21 -22 22 -24 24 -26 -27 -28 -29 29 -31
leaf_value=0.057240498608129006 1.0058244794167812 -0.04477919618441608 0.042112644513506686 0.036954858379469983 -0.037550082393702951 0.3493219535072899 -0.074717207545420772 -0.80128769730628069 -0.02836419869477699 -0.0023135903484307538 0.018302936512699861 2.8373475657268004 0.14919898358243969 0.043801842004785894 -0.070117692479841592 1.9340005461126566 -1.5584483903623805 2.7681934250863245 -1.5567981495288175 -0.057732333015586446 -1.4120540056456838 2.091026191959684 -1.0801891990610071 -0.060259107098505564 -0.0084454234665228174 -0.012523817294356157 0.045651242348117883 0.051481434944920787 -0.20344340723594703 -0.90048994866241794
leaf_weight=465072 2928 461722 434462 584912 458791 2878 248201 7344 177434 4416 1662778 100 133259 165050 24738 80 779 736 719 240821 8797 789 259 52268 5765287 6316040 2442801 171290 9436 23965
leaf_count=465072 2928 461722 434462 584912 458791 2878 248201 7344 177434 4416 1662778 100 133259 165050 24738 80 779 736 719 240821 8797 789 259 52268 5765287 6316040 2442801 171290 9436 23965
internal_value=0 -0.00137098 -5.7152e-05 0.00105915 7.17255e-05 -0.0575745 -0.0906597 -0.477309 -0.0113004 0.400445 -0.00116256 -0.000181672 -0.00218306 -0.0435639 -0.341008 -0.887147 0.408844 0.999742 -1.00464 -0.0164428 -1.3819 1.92552 1.29494 -0.000954269 0.00531422 -0.00918198 0.0346976 -0.0694318 -0.311168 -0.7039
internal_weight=0 1.94031e+07 1.89599e+07 1.84982e+07 1.80637e+07 443201 258423 10222 184778 7344 1.74788e+07 1.702e+07 1.53572e+07 442868 36997 12259 3382 2603 819 405871 8877 1784 1048 1.49143e+07 8.46505e+06 6.4493e+06 2.69976e+06 256959 85669 33401
internal_count=19868152 19403080 18959879 18498157 18063695 443201 258423 10222 184778 7344 17478783 17019992 15357214 442868 36997 12259 3382 2603 819 405871 8877 1784 1048 14914346 8465047 6449299 2699760 256959 85669 33401
cat_boundaries=0 45 85 126 170 215 216 217 218 219 220 264 310 311 352 353 354 355 356 357 358 394 435 436 477
cat_threshold=0 0 0 0 524288 0 1 0 0 0 2048 4194304 256 0 0 0 0 32768 6292992 262144 65536 0 0 33816576 0 524288 0 16777216 2147624960 0 1048576 4194304 0 33824768 2147483664 4 8192 0 0 0 0 16384 4194304 0 4194304 1024 0 0 0 16452 0 0 0 536870912 1073741824 256 1 2147483648 2 0 0 256 16384 0 0 68157440 1280 0 0 0 1082130432 0 0 16384 131072 1107304448 32 16384 4194304 131072 0 2097152 65536 4 17039360 8192 0 0 0 1 1073741824 0 0 256 524288 0 32 0 0 0 1024 2048 0 0 0 1074266112 32 4096 0 2176 2684420096 2097152 0 0 0 131072 1 16 514 32768 134250498 0 4096 268500992 32768 512 0 0 0 0 0 0 524288 0 65536 0 131072 2 0 33554560 0 65536 16777216 0 128 4096 0 0 537395200 33792 0 16384 2 131072 8388608 33554448 0 16384 0 32768 16384 2160075264 0 1310720 0 0 0 2147483648 0 1073741824 33554432 0 0 0 0 1024 0 134217728 0 0 0 0 0 131072 0 0 0 4 0 65536 0 4194304 512 0 0 0 0 256 301989888 1074794560 128 0 0 0 9216 0 37376 68 536870912 4194434 0 37748736 65536 1024 1024 4210 4 12 4 66 0 0 134217728 0 0 4194320 0 0 1024 0 37765120 0 0 2097664 131072 0 0 0 0 0 0 128 0 0 0 0 262144 64 0 268443648 4 0 8288 2099233 2048 0 134217728 0 263168 1073741840 16 0 2048 1 0 0 0 0 0 0 0 0 0 32768 64 2147615248 134217744 2112 1073741824 32 270336 524288 0 0 0 0 0 0 0 0 0 0 0 0 0 0 0 0 0 0 524288 8388608 2315255808 2228288 8651108 0 0 25165824 0 1 16 0 0 0 0 0 0 0 0 0 0 0 0 0 0 0 0 0 0 0 0 0 0 0 0 0 0 0 0 0 0 0 0 0 0 0 0 0 0 167772160 2097152 8388708 198 6 1550 14913543 4190 17296 0 0 0 0 0 0 23068688 0 8192 2151686152 0 1024 1323008 257 604012544 3221356560 16400 1048832 134217728 0 0 0 0 0 0 0 536870912 0 0 0 0 0 0 24 0 1 0 0 0 0 0 0 0 0 0 0 0 0 0 0 0 0 0 0 134217728 36 0 0 0 0 0 270532928 1946157312 278939648 1536 2115328 71305256 0 0 0 0 0 0 0 32768 1024 1024 3072 0 0 0 0 0 0 0 0 0 0 0 0 0 0 0 0 0 0 0 36 0 0 0 0 0 270532928 1946157312 268435456 0 0 71303168 0 0 0 0 0 0 0 0 1024 1024
shrinkage=1


Tree=6
num_leaves=31
num_cat=26
split_feature=0 15 1 8 8 18 1 15 1 15 1 15 15 1 1 15 1 10 1 15 1 15 1 18 15 1 1 13 10 13
split_gain=1246.55 2000.58 1340.9 6622.07 1198.73 2337.47 1172.06 2003.06 1168.22 2611.96 969.243 1074.2 933.263 3292.23 2233.12 2216.39 2435.39 2375.97 1982.52 2061.66 1818.88 4415.08 1771.27 1548.44 1330.3 1602.31 1234.35 1188.82 1227.64 1849.84
threshold=0 1 2 -11.049999999999999 19.450000000000003 3 4 5 6 7 8 9 10 11 12 13 14 1011.1500000000002 15 16 17 18 19 20 21 22 23 24 1017.4500000000002 25
decision_type=1 1 9 8 8 1 9 1 9 1 9 1 1 9 9 1 9 10 9 1 9 1 9 1 1 9 9 1 10 1
left_child=1 2 3 -1 8 6 7 -6 9 -2 11 -10 13 15 -15 16 -12 -18 19 -14 21 -20 -16 24 25 -24 -17 -19 -29 -30
right_child=4 -3 -4 -5 5 -7 -8 -9 10 -11 12 -13 18 14 22 26 17 27 20 -21 -22 -23 23 -25 -26 -27 -28 28 29 -31
leaf_value=2.9226630956116244 -0.12658645406661354 -0.03708929439297351 -0.0013653085296838252 0.074686416219074778 0.288511039385412 -0.00091852085902966308 -0.068920895689553924 -0.44479825608819196 -0.11263983945437532 0.18556529095093979 -0.01059466793341584 0.0017291359356524658 0.076105544793719754 -0.13223521712902009 0.13358110420202951 0.23657316555562088 -0.1228298897973667 1.3861920790875883 0.30913405839940677 -0.12674990048191118 0.0027876385439226901 -0.032142206825566975 -0.072779583660217972 0.0037016086462425802 0.0078506347564042643 0.10027852967038395 0.0062324496056277113 0.77674659252892009 1.5048377841102103 0.088455411704438297
leaf_weight=820 36881 2102725 1891583 187720 4646 1810762 440088 18701 141276 98076 11764 196131 65010 100577 129690 36963 4620 2068 65623 218394 8086119 89739 59965 3051773 436466 496004 62761 13288 1056 6863
leaf_count=820 36881 2102725 1891583 187720 4646 1810762 440088 18701 141276 98076 11764 196131 65010 100577 129690 36963 4620 2068 65623 218394 8086119 89739 59965 3051773 436466 496004 62761 13288 1056 6863
internal_value=0 -0.0153376 0.00665059 0.0870682 0.00409142 -0.0171377 -0.0805085 -0.29881 0.00769136 0.100258 0.00675031 -0.0461603 0.00813011 0.0199331 0.0150011 0.17117 0.371116 0.532039 0.00201898 -0.0802159 0.00484692 0.112019 0.0185493 0.0148602 0.0491727 0.0816121 0.0916241 0.662257 0.59073 0.279342
internal_weight=0 4.18285e+06 2.08012e+06 188540 1.56853e+07 2.2742e+06 463435 23347 1.34111e+07 134957 1.32762e+07 337407 1.29387e+07 4.41386e+06 4.27448e+06 139383 39659 27895 8.52489e+06 283404 8.24148e+06 155362 4.1739e+06 4.04421e+06 992435 555969 99724 23275 21207 7919
internal_count=19868152 4182848 2080123 188540 15685304 2274197 463435 23347 13411107 134957 13276150 337407 12938743 4413858 4274475 139383 39659 27895 8524885 283404 8241481 155362 4173898 4044208 992435 555969 99724 23275 21207 7919
cat_boundaries=0 1 2 43 44 78 79 110 111 154 155 156 202 247 248 293 339 340 370 371 416 417 418 452 497 498 499
cat_threshold=16784 2928 0 0 0 0 0 0 0 0 0 0 0 0 0 0 0 0 0 67108864 39912960 335806464 1026 0 0 0 0 2152792720 25174144 96 0 0 0 0 0 0 0 0 0 0 167772160 2097152 8388708 37956 0 0 0 0 0 0 67108864 0 0 136347713 1179712 536870912 134217728 131076 8 0 2165309440 0 0 0 167247872 1240 0 320 0 0 0 0 0 0 0 0 0 33554432 7728 566249757 1074790544 1140903940 128 0 0 0 0 0 136314944 0 541130752 0 0 2048 0 1572864 0 0 0 0 0 0 0 0 0 0 0 0 0 4194304 4544 0 0 0 0 0 0 23068688 0 8192 8 1 2147483648 1310720 0 0 0 16400 0 0 0 0 0 0 3222016000 131329 0 0 0 64 10240 16778240 0 0 24 0 1 0 0 0 0 0 32768 36868 7936 5256 0 0 0 0 0 0 0 0 0 0 0 0 0 67108864 0 0 0 0 0 0 0 0 0 0 1049600 0 0 0 0 0 0 0 0 0 67141632 0 4194304 0 0 0 0 1074593792 265298 269222288 1191217193 2 2147491968 0 134217728 0 38440960 0 0 0 0 8192 0 1536 1024 0 32768 0 0 0 0 0 0 0 0 0 0 0 0 268435456 2147483648 5140 1073741824 2097152 537139200 512 134217728 0 0 0 64 0 0 0 32 0 131072 128 0 0 0 0 0 0 0 0 0 0 0 0 0 67108864 0 0 0 0 0 0 0 0 0 0 1049600 0 0 0 0 0 0 0 0 0 67141632 0 4194304 0 0 0 0 0 0 269221888 34849 268435968 0 0 0 1610612736 0 0 0 0 2048 134217728 0 0 0 0 0 0 0 0 0 0 1 0 0 0 0 0 0 0 65536 0 0 0 0 335577088 0 4194304 0 0 0 0 1611726848 344329297 146 553648128 2 320 3221233824 4194304 134217728 0 47353856 0 0 0 0 32768 1048640 0 134218752 2147549188 264 0 131136 0 0 0 0 0 0 0 0 0 0 268435456 2147483648 4199440 38 0 33554432 2097152 4 512 0 0 4 4194304 4 0 0 8388608 0 0 2 33554432 0 0 0 0 0 0 0 0 0 0 0 0 0 0 0 0 0 0 0 0 134217744 0 0 0 605028352 377618440 3272606208 329280 8640 5120 0 262144 131072 0 75505664 0 0 0 0 536870912 0 0 0 0 131072 805306368 256 540672 0 0 0 8 0 151028736 128 0 0 1024 0 8388640 268443648 25166368 69795840 33554432 0 0 0 0 0 0 0 0 0 0 0 0 0 67108864 0 0 0 0 0 0 0 0 0 0 1049600 0 0 0 0 0 0 0 0 0 67141632 0 4194304 0 0 0 0 0 0 269221888 34849 32 16
shrinkage=1


Tree=7
num_leaves=31
num_cat=27
split_feature=1 15 1 1 15 1 1 1 1 1 15 1 1 15 15 1 1 6 1 18 1 15 1 1 1 1 8 10 1 1
split_gain=750.941 792.722 661.136 586.094 482.407 462.337 456.205 399.479 375.905 375.21 365.373 1080.2 318.598 316.268 300.367 575.304 334.274 298.826 822.236 788.615 546.004 796.585 512.648 454.517 426.09 425.163 410.385 395.82 373.911 323.59
threshold=0 1 2 3 4 5 6 7 8 9 10 11 12 13 14 15 16 31.750000000000004 17 18 19 20 21 22 23 24 12.15 1005.2500000000001 25 26
decision_type=9 1 9 9 1 9 9 9 9 9 1 9 9 1 1 9 9 10 9 1 9 1 9 9 9 9 10 8 9 9
left_child=1 -1 4 14 6 -5 -2 13 -9 -10 11 -3 -11 -7 15 -4 -16 20 -19 22 21 24 -20 -24 -14 -21 -25 -28 -22 -23
right_child=2 10 3 5 -6 7 -8 8 9 12 -12 -13 17 -15 16 -17 -18 18 19 25 28 29 23 26 -26 -27 27 -29 -30 -31
leaf_value=-0.035811702522387093 -0.094517982756448446 0.3681117588111007 -0.15672832668098891 0.032130155931040648 0.055147744494074939 0.056044657595890071 0.031868752259701871 -0.032450619808160983 -0.029450455810577158 0.025371640921563045 0.054256710174888582 0.05860003078581412 0.16906592607927198 0.001748342882792064 0.019645185479769418 -0.023374603874724113 -0.056224063321451988 -0.52679910156318821 0.69522012192350613 0.31559687081303878 -0.030620031399486894 -0.047592046198660316 -0.30468161052253828 -0.068044462214609511 0.056779225098380424 0.022694503283985871 0.13700712205614637 -0.021875888039289214 -0.00076772702706925683 0.027529075781837765
leaf_weight=88239 47533 15678 55732 413036 348016 211035 71521 407494 474836 447713 203660 40139 47448 218202 111915 77124 120692 3173 945 5043 431826 92238 6318 236688 117521 258001 16380 366857 14781620 151529
leaf_count=88239 47533 15678 55732 413036 348016 211035 71521 407494 474836 447713 203660 40139 47448 218202 111915 77124 120692 3173 945 5043 431826 92238 6318 236688 117521 258001 16380 366857 14781620 151529
internal_value=0 0.0460644 -0.000818943 -0.00173014 0.0363509 -0.000954522 -0.0185956 -0.0017023 -0.00242741 -0.00172581 0.0739079 0.145587 -0.000949727 0.0284439 -0.0413899 -0.079323 -0.0197216 -0.00166328 -0.0194505 -0.0176361 -0.000646055 0.0354213 -0.0369111 -0.0380269 0.0890832 0.0283217 -0.0353044 -0.015085 -0.00161509 -0.000896485
internal_weight=0 347716 1.95204e+07 1.90534e+07 467070 1.86879e+07 119054 1.82749e+07 1.78456e+07 1.74381e+07 259477 55817 1.69633e+07 429237 365463 132856 232607 1.65156e+07 893405 890232 1.56222e+07 408736 627188 626243 164969 263044 619925 383237 1.52134e+07 243767
internal_count=19868152 347716 19520436 19053366 467070 18687903 119054 18274867 17845630 17438136 259477 55817 16963300 429237 365463 132856 232607 16515587 893405 890232 15622182 408736 627188 626243 164969 263044 619925 383237 15213446 243767
cat_boundaries=0 45 46 90 135 136 182 215 261 307 352 353 385 427 428 429 474 519 563 564 594 595 641 687 713 759 804 830
cat_threshold=1024 45056 131072 0 8192 0 0 0 0 0 131072 0 0 131072 2359296 0 2164260864 0 4195840 262144 0 0 16777216 0 0 268435456 0 16384 0 256 526368 10485760 536875008 512 134217728 0 0 0 64 0 0 0 32 0 536870912 6160 0 2048 0 0 526336 2621440 0 2147483648 134217744 18433 268435584 0 0 0 0 0 0 0 4 1 256 134217728 0 524288 0 256 67108864 2048 512 2212352 8 0 524290 0 0 0 0 0 0 0 0 0 1 8192 16384 8388608 16384 128 1048576 0 0 0 147456 4194304 0 16842752 0 2214658048 2048 0 524288 65792 134217728 0 1024 0 0 0 0 512 128 268435456 2147483648 128 71303168 0 0 0 0 0 0 0 0 256 0 67108864 0 1073741824 3136 6656 2147483648 0 16 0 0 0 0 335806464 66 0 0 512 67174400 0 69632 2113536 0 0 2097152 512 4096 0 0 0 0 67108864 134217728 2097152 0 0 1073774592 1048832 67371008 0 0 0 0 0 0 2097152 0 32802 0 0 131072 128 0 0 0 0 524288 0 0 0 0 0 268435456 0 0 0 0 0 0 0 0 0 0 134217728 0 0 0 256 67108864 2048 512 2114048 8 0 2 0 0 0 0 67108864 33025 0 1073741832 268437504 0 603979776 0 2052 4194304 0 524288 4 0 0 0 0 0 2064 262144 0 262144 1073741825 8388608 1024 0 0 16908288 2048 0 0 0 0 2147483648 512 8192 0 0 2097152 2 0 64 0 64 262144 8 16777216 0 0 0 524288 134217728 0 4194304 64 1 67108864 0 131072 0 0 0 0 0 0 0 0 5275776 25165824 0 0 0 0 4202496 0 0 16 16448 17301504 128 0 4 4096 0 264 285212672 0 256 0 65536 4096 0 0 2080 0 128 2147483648 2097152 0 0 4096 1048576 0 2164260864 1 0 0 0 0 40960 0 0 0 16 2048 8 0 4096 0 16384 0 8388616 0 0 8224 0 0 526336 0 16777216 4194306 1048832 1073741856 34 0 0 0 0 0 0 0 0 0 0 131072 0 0 131072 0 0 2164260864 0 4195840 262144 0 0 0 0 0 268435456 0 0 0 0 0 8388608 0 0 0 0 33555456 0 0 0 0 256 262176 136318976 268435456 0 0 536871424 2 0 0 0 0 0 0 4096 16385 41943040 268435712 131072 301989888 34611200 1156 0 131072 0 0 0 0 0 0 0 0 132608 350 3456 16384 0 16384 128 0 0 0 0 0 4194304 0 0 0 2147549184 2048 0 524288 0 134217728 0 0 0 0 0 0 0 0 268435456 2147483648 0 4194304 0 0 0 0 0 0 0 0 0 0 0 0 0 64 16384 0 16384 128 0 0 0 0 0 4194304 0 0 0 2147549184 2048 0 524288 0 134217728 0 0 0 0 0 0 0 0 268435456 2147483648 0 4194304 0 0 0 0 0 0 0 0 0 0 0 0 1073741824 1088 0 0 0 0 134611728 0 0 0 0 0 0 0 0 262272 4194304 0 0 0 0 0 0 0 0 0 67108864 2097216 0 0 0 0 0 0 0 688128 18087936 33554432 8652800 2099204 9 0 0 268435456 524288 66568 70686 0 0 134217728 0 0 8196 268566784 570561056 18887849 2 0 0 0 0 4726784 4456448 0 64 0 0 0 0 0 0 0 16777280 0 16777216 0 1073741824 30 0 0 0 269090816 0 0 0 0 0 0 0 0 0 0 0 0 0 0 0 0 0 0 0 0 0 0 0 0 0 0 0 0 32 0 0 0 0 65536 4 0 0 1746468864 67277908 656 253239296 16 8388608 0 0 536870912 0 0 0 0 0 2156134400 8392704 64 2097408 536872960 0 4325408 4235328 64 0 0 0 0 0 0 325058560 0 0 0 0 0 0 0 0 65536 0 0 0 32768 0 0 0 8388864 0 1 2147483648 4 0 0 134217728 0 0 0 268566528 544 0 0 0 0 0 0 4718592 4456448 0 64 0 0 0 0 0 0 0 64 0 0 0 0 2211848 0 0 0 0 1073872896 32768 0 0 32768 0 75497472 0 0 0 0 0 0 0 16777216 128 0 0 0 0 0 0 0 0 33554432 335544320 524297 4194562 263200 1073741824 67129344 1 0 0 2048 0 1 0 0 69206016 0 0 335544320 67108888 4718592 604241920 32 65536 0 671088640 0 1 0 0 0 0 2 0 4 0 0 0 0 0 0 0 8388624 16777216 262144 0 262144 2147549184 67108864 0 512 0 0 0 540672 0 0 67108872 0 0 0 0 0 8196 268566528 544 8 0 0 0 0 0 4718592 4456448 0 64 0 0 0 0 0 0 0 64
shrinkage=1


Tree=8
num_leaves=31
num_cat=26
split_feature=1 15 1 1 15 1 1 1 1 1 1 1 1 8 9 1 15 6 1 1 1 1 1 1 13 1 1 1 6 1
split_gain=341.709 294.905 3717.59 2626.81 2332.99 1573.52 1564.3 1118.41 984.168 957.213 912.735 886.935 844.04 816.987 869.856 703.378 674.748 661.201 608.88 553.92 553.57 545.184 524.385 493.84 425.391 419.093 417.979 422.335 396.865 378.885
threshold=0 1 2 3 4 5 6 7 8 9 10 11 12 16.450000000000003 49.000000000000007 13 14 11.550000000000002 15 16 17 18 19 20 21 22 23 24 18.850000000000005 25
decision_type=9 1 9 9 1 9 9 9 9 9 9 9 9 8 8 9 1 10 9 9 9 9 9 9 1 9 9 9 10 9
left_child=-1 2 -2 4 5 13 -6 -4 -9 -5 -10 -11 -12 14 28 16 -13 -16 -17 -14 -7 -18 -20 -21 -19 -24 -25 -28 -3 -27
right_child=1 3 7 9 6 20 -8 8 10 11 12 15 19 -15 17 18 21 24 22 23 -22 -23 25 26 -26 29 27 -29 -30 -31
leaf_value=-0.029844331625107492 -0.17129536641167403 -1.961036350420964 0.099068713981602149 -0.07787440254275875 0.3955923822523924 -0.12109513025076263 0.13048981547252822 -0.07624854871936293 0.07866879384924183 0.062150494020251044 0.070166971362170802 -0.013655506549767011 0.062840608037078985 0.33484454141945802 -0.10718225179408307 -0.050439112996192421 -0.19326697834503029 -0.43154438820547253 0.047502697813088697 -0.054402538710039382 0.098714687655888797 -0.044101168158014292 0.040783660403688825 0.055911497968780859 -1.5765612750833782 0.035547791359187141 0.051877208982279238 0.0018454778938365895 0.41037526516578138 -0.0051308882808895114
leaf_weight=376362 117575 741 132094 175384 29006 22296 95756 141855 177561 202526 200302 139003 158477 725 1495 268652 51244 617 207836 146437 23547 46983 211758 153301 741 234479 173099 6654336 78 9723886
leaf_count=376362 117575 741 132094 175384 29006 22296 95756 141855 177561 202526 200302 139003 158477 725 1495 268652 51244 617 207836 146437 23547 46983 211758 153301 741 234479 173099 6654336 78 9723886
internal_value=0 0.000576606 0.00521142 -0.00268775 0.118884 -0.0630626 0.19215 0.00782617 0.0062819 -0.00457701 0.00780967 -0.0034174 0.00612885 -0.633803 -0.826779 -0.00463754 -0.0584912 -0.566005 -0.0034375 0.00436818 -0.00819414 -0.121931 -0.00222074 0.00306792 -1.07112 -0.00323693 0.00427357 0.00311403 -1.73519 -0.00417304
internal_weight=0 1.94918e+07 8.05504e+06 1.14368e+07 175002 50240 124762 7.93746e+06 7.80537e+06 1.12618e+07 7.66351e+06 1.10864e+07 7.48595e+06 4397 3672 1.08838e+07 237230 2853 1.06466e+07 7.28565e+06 45843 98227 1.0378e+07 7.12717e+06 1358 1.01701e+07 6.98074e+06 6.82744e+06 819 9.95837e+06
internal_count=19868152 19491790 8055037 11436753 175002 50240 124762 7937462 7805368 11261751 7663513 11086367 7485952 4397 3672 10883841 237230 2853 10646611 7285650 45843 98227 10377959 7127173 1358 10170123 6980736 6827435 819 9958365
cat_boundaries=0 45 46 81 126 127 161 195 240 285 326 371 417 462 507 508 553 599 638 683 728 774 775 817 860 901 947
cat_threshold=0 0 0 0 8 0 4 4 256 0 163840 0 0 8519680 1048832 0 2164260864 0 1077937664 0 65536 1048576 0 0 0 268435456 2684354560 32 0 0 0 8388608 32768 8192 1 2052 268435456 0 0 0 0 262144 0 1073741824 1024 2392 0 0 0 0 67109376 0 0 0 0 136347712 1048640 537427968 138413056 132 2056 262144 1048576 0 2097152 0 0 0 0 0 1048576 134217744 8388736 512 0 0 0 16777728 0 24 268435456 0 0 0 0 67109376 0 0 0 0 136347712 1048576 537427968 138413056 132 18432 262144 1048576 0 2097152 262144 0 0 0 0 262144 16 640 0 0 0 0 16777728 0 24 268435456 0 0 0 536870912 0 0 0 0 0 16384 4224 0 0 0 0 0 0 0 0 0 0 0 0 1024 0 0 0 0 0 0 0 0 0 0 0 0 0 0 0 0 0 0 0 0 24 0 0 0 0 0 0 0 0 0 0 0 557056 4195328 128 0 262144 0 0 0 0 0 0 0 0 0 0 0 0 0 0 0 0 0 24 0 0 131072 8 0 0 1048704 524288 0 0 2147483648 65536 64 0 0 343932928 131072 0 0 33554436 68159488 3023872 0 0 0 0 0 0 0 256 2048 24576 0 0 134217984 0 0 0 0 0 67108864 0 0 0 132 0 16 0 0 19456 0 0 0 536870912 0 512 262144 131072 32 0 0 134217728 0 0 8388616 72 0 0 0 1024 64 66048 0 0 0 0 4096 2623488 0 32768 0 4194304 0 0 0 0 2 16793600 69206016 16656 100794368 0 0 8 0 0 0 0 0 1073872896 128 8454144 16385 524288 0 67108864 1088 128 134217728 33554432 67110912 3110912 0 0 0 0 0 0 0 0 0 0 0 0 0 0 2097152 0 0 0 603979776 33554432 262144 0 0 33554432 0 1073741824 0 0 0 0 2147483648 16384 0 0 0 64 0 0 0 2147876864 71682 256 0 0 1024 4 16386 2147483648 2097664 16777216 32768 0 0 0 0 0 0 134217728 0 0 4225 8 0 1090519048 0 4096 0 0 268436480 0 0 0 536870912 0 134218304 1024 0 0 8 0 134217728 536870912 256 8388608 32768 0 0 2099200 1183746 136314944 75563008 512 0 0 0 6144 65536 0 67108864 0 0 0 0 0 0 0 0 0 0 1 0 0 0 0 32768 0 16777216 0 0 0 2097280 4 0 0 131072 0 128 0 0 0 16777216 2214592512 8388608 1073741824 256 0 16384 2097152 512 25600 40 0 268435456 0 0 1 2621440 0 0 0 134217760 32 1073750018 0 32768 536870912 0 0 0 33554432 0 0 32 1024 0 2097152 256 64 0 16777216 33554433 131072 131072 0 0 1310720 1024 0 0 0 1056 32 0 0 4194304 0 0 0 0 0 33554432 0 2097152 1048608 0 3657433089 0 1073741824 32 32768 5280 268435456 0 0 0 0 0 128 2048 0 2 0 0 0 65536 1073741824 8388618 0 32768 0 4 0 0 262276 8 0 0 0 2097152 2147483648 8192 16777216 24576 0 0 0 1 0 0 0 0 0 2185232417 2147483658 8 1073741824 131072 0 0 0 0 4325376 2097152 0 0 1073741824 0 8388608 2129920 65536 1 1048576 0 0 0 0 0 49408 319823872 2147492864 0 131072 1088 0 0 0 0 0 0 0 0 256 0 0 0 0 2147483648 131136 524288 0 2097152 256 0 0 0 0 67108864 0 0 0 0 2129920 1048576 557056 138412032 132 16384 262144 0 0 0 0 0 0 0 0 0 0 0 0 0 0 0 0 0 0 0 0 0 0 536870912 0 0 0 0 0 0 0 32 1024 0 0 256 0 0 0 0 0 0 0 0 1048576 1024 0 0 0 1024 0 0 0 0 0 0 0 0 0 0 0 0 0 0 3657433089 0 0 0 32768 1024 40960 0 4096 8192 0 16384 0 0 0 8192 262144 16777216 0 0 0 2048 0 8 4096 69 0 0 0 4 0 0 0 0 0 0 0 2623488 33571328 0 0 4194304 524288 0 0 0 2 16777216 69402624 272 0 0 67108864 673317376 327680 0 0 0 0 0 0 4195328 0 67108864 268451840 1024 0 268435456 16777216 67371008 33024 16 0 0 4097 0 0 0 0 0 0 2147483648 67174400 0 0 1024 0 0 536870912 32 2 0 0 0 65536 16 112 0 0 67108868 268437504 2048 8208 0 0 0 0 0 4210688 0 0 2147483648 4195328 16 0 554172418 1207959552 0 0 0 335675392 65536 0 0 0 8192 0 0 0 620761088 0 36864 0 4 0 0 0 0 8192 335544320 1 1024 128 0 4 0 0 0 33554432 0 0 32 2148007936 16777232 536870912 0 2148008448 134217728 0 0 268435456 536870920 134217728 128 4194432 0 0 0 0 0 262144 0 0 0 0 2048 0 0 4194304 33554432 66048 3072 16384 0 0 0 0 0 4194816 2336 0 32 0 0 2 134217728 0 2097154 1073741824 32896 2048 0 524288 1216348172 1073745920 6 0 0 0 268437760 0 0 0 0 0 0 1048576 0 0 0 0 0 1879048192 0 0 0 537001984 16384 0 32 8192 0 65664 268435456 234881024 131072 32 0 0 32768 33554432 4096 134152 0 0 0 16896 16385 0 0 0 0 0 0 2214592512 0 0 0 0 0 0 0 16 16777728 0 65536 1024 0 16
shrinkage=1


Tree=9
num_leaves=31
num_cat=28
split_feature=1 15 1 1 1 8 1 1 6 1 1 1 1 1 1 1 15 1 15 1 1 1 15 1 1 1 1 18 1 13
split_gain=299.966 361.672 382.4 274.759 255.489 241.814 433.51 417.244 351.402 1152.17 944.926 874.8 582.512 606.569 529.131 473.513 2415.53 838.048 690.239 451.271 429.98 408.996 405.416 389.371 380.109 407.318 363.291 342.35 457.944 453.219
threshold=0 1 2 3 4 -21.049999999999997 5 6 1.7500000000000002 7 8 9 10 11 12 13 14 15 16 17 18 19 20 21 22 23 24 25 26 27
decision_type=9 1 9 9 9 8 9 9 8 9 9 9 9 9 9 9 1 9 1 9 9 9 1 9 9 9 9 1 9 1
left_child=1 2 -1 -2 -3 6 -5 -8 9 -7 -11 -12 -13 -14 22 16 17 26 23 -17 -16 -20 -15 -18 -22 -26 -10 28 -27 -30
right_child=3 4 -4 5 -6 8 7 -9 15 10 11 12 13 14 20 19 18 -19 21 -21 24 -23 -24 -25 25 27 -28 -29 29 -31
leaf_value=0.12478368043039414 -0.02959349664779273 -0.041868733450851271 0.02438149989921299 0.69111511467660425 0.028497009265875804 -0.26793482976112371 -0.71859767782866568 -0.044975646962633925 0.87489291731885521 0.24199955610731974 -0.17354714161147236 -0.12541324858402264 -0.1039553476646688 -0.083674610017150639 0.14798125522280375 -0.037435204772037836 0.1945848860504861 0.14223354825946191 -0.13606292473871653 -0.0011864844218199058 0.12156759046397869 -0.016280908498960762 0.24777347623097579 0.022934995354350347 0.10227195257923678 -0.075728223604256253 0.35557472246491828 -0.003782408422996297 -0.0068815641511164351 0.042497217234270204
leaf_weight=63002 320169 83592 95358 784 134790 14518 917 115559 1488 18114 24913 29105 40523 4722 25056 350781 15772 50635 46414 16392030 33559 73883 16871 81314 51006 43799 14655 793656 256576 674591
leaf_count=63002 320169 83592 95358 784 134790 14518 917 115559 1488 18114 24913 29105 40523 4722 25056 350781 15772 50635 46414 16392030 33559 73883 16871 81314 51006 43799 14655 793656 256576 674591
internal_value=0 0.0279472 0.0643309 -0.000541024 0.00156181 -5.58183e-05 -0.0453282 -0.0503402 0.000222792 0.0126694 0.0146949 0.0126292 0.0149851 0.0170917 0.0196741 -0.00125893 0.0392193 0.205554 -0.0118841 -0.00194596 0.0178842 -0.0625037 0.175287 0.0508374 0.0161245 0.0141791 0.403955 0.011638 0.0241907 0.0288913
internal_weight=0 376742 158360 1.94914e+07 218382 1.91712e+07 117260 116476 1.9054e+07 2.02701e+06 2.01249e+06 1.99438e+06 1.96946e+06 1.94036e+06 1.89984e+06 1.7027e+07 284161 66778 217383 1.67428e+07 1.87824e+06 120297 21593 97086 1.85319e+06 1.81963e+06 16143 1.76862e+06 974966 931167
internal_count=19868152 376742 158360 19491410 218382 19171241 117260 116476 19053981 2027009 2012491 1994377 1969464 1940359 1899836 17026972 284161 66778 217383 16742811 1878243 120297 21593 97086 1853187 1819628 16143 1768622 974966 931167
cat_boundaries=0 43 44 87 133 176 220 264 299 332 370 415 460 494 539 540 585 586 632 678 723 724 767 812 857 893 894 936 937
cat_threshold=0 0 0 0 69206016 33554432 67371008 0 1024 3145728 1048576 256 134218761 4 520 0 0 8192 0 0 0 0 33 0 0 1073741824 8388608 512 0 64 0 0 4194304 0 0 0 0 0 268436480 1073741824 65 0 32772 1226 0 0 0 0 67108864 0 0 0 0 2097152 1048576 0 134218752 4 8 0 0 8192 0 0 0 0 0 0 0 0 0 0 0 0 0 0 0 0 0 0 0 0 268435456 0 64 0 32772 2048 0 0 4096 0 0 0 524288 0 0 0 557056 4194368 128 0 537133056 131072 0 0 262144 524288 32768 570425344 0 262144 0 512 268435456 0 0 2048 0 1048576 0 134217984 2097152 524288 0 0 0 0 131072 1073741824 0 16524 256 0 0 0 0 0 0 0 0 0 2097152 1048576 0 134218752 4 8 0 0 8192 0 0 0 0 0 0 0 0 0 0 0 0 0 0 0 0 0 0 0 0 268435456 0 64 0 32772 0 0 0 0 0 0 0 0 0 541720832 2684356608 1074790912 67121296 546586624 16384 67108864 2048 0 0 0 0 0 0 0 1048832 0 0 0 0 0 0 0 0 0 0 0 0 0 0 0 0 16 17 8192 0 0 0 0 0 0 0 0 0 8388608 1056 131072 8388608 524800 134348800 524356 0 131080 0 0 0 0 0 1024 0 0 0 0 0 0 0 0 0 0 0 0 0 0 671088640 0 4 2185234432 672064 436 0 0 0 0 4719104 0 0 0 0 0 0 0 131072 32768 0 0 0 0 0 0 136314880 65537 0 524368 384 0 0 8192 0 276955808 101843968 32 593920 512 268435456 0 0 0 0 9512960 0 0 0 0 2281703680 0 512 4096 302121024 570462272 0 32770 0 0 0 0 536870928 268441664 0 0 0 0 1024 16 8 0 0 131072 0 0 0 135300096 33587200 0 0 0 0 0 33554432 262144 0 32 0 0 0 0 0 0 0 268296 0 2147746944 2 0 0 2048 8192 2105348 276824064 40960 268699648 0 0 1 0 8192 0 0 0 0 131072 0 0 0 0 0 520 0 1073741824 0 0 16809984 40 0 0 0 339738624 4719616 1074282496 1090519040 196608 0 0 16777216 2 1073741824 20971520 278528 2147483648 0 0 0 0 0 0 0 0 0 8 0 2621440 0 0 0 0 0 0 0 0 0 8388608 4194308 268435464 0 0 0 16512 1216348160 4096 0 0 0 1073750016 0 268439552 0 0 0 0 33685504 65536 1073741856 4194304 603979776 4194304 67108864 0 0 0 0 536870912 0 32768 537001984 4160 1048576 0 0 0 0 16388 0 0 0 0 268435456 536870912 541065216 327698 1073760512 65536 1073741840 2147750400 1048580 0 0 131072 0 131072 0 0 0 0 0 0 0 81984 16 2 2048 0 0 0 0 524288 0 0 0 0 8392704 0 2048 0 294912 0 4096 0 0 0 0 0 0 0 0 0 0 0 0 0 0 0 4251648 0 6291456 1342177280 134217729 134217728 12288 0 0 4 536903680 813830184 0 134225920 384 0 0 0 0 0 0 0 0 0 0 0 0 0 0 0 0 0 0 0 0 0 0 0 0 0 0 0 0 0 0 0 0 0 0 268435456 1 0 8192 0 0 0 32768 536875016 0 134217728 2628 0 0 0 0 8192 0 0 0 0 2147483648 0 0 8192 256 536870912 1073741840 16 0 0 0 0 0 0 0 0 0 0 0 0 0 0 276824064 256 0 16786432 4202496 0 8650752 0 0 0 8192 65536 3259638784 272630784 1 0 0 0 0 1024 0 0 0 0 524288 1073905666 147456 0 20979712 2097408 32 16777296 65792 0 0 65536 0 67174528 0 2048 0 0 0 256 4112 0 0 0 256 0 0 0 0 0 0 2 0 0 2281701376 0 1 0 0 0 0 0 0 0 0 0 0 0 0 0 0 0 0 0 0 0 0 0 0 0 0 0 0 0 0 0 0 0 4251648 0 0 268435456 1 0 8192 0 0 0 32768 813699080 0 134225920 4096 0 0 0 0 524288 0 0 0 0 0 0 0 0 0 0 0 0 0 0 0 0 0 0 0 0 0 0 0 0 0 0 4251648 0 0 1342177280 0 0 0 0 0 0 0 32 0 0 0 0 0 0 0 0 0 4202560 276824064 33554560 8192 0 2281979904 76546049 1028 0 0 0 0 134217728 0 1048576 0 0 0 0 2149580800 2147483904 2 134217736 1024 4096 0 0 0 0 2147483648 1024 0 0 0 0 2 0 0 0 0 128 0 0 0 0 0 0 2155872256 0 0 2080 65536 1056896 1 0 0 0 1048832 0 4 0 0 0 1073741824 8388672 262144 536870928 0 134217728 0 0 0 16384 0 133248 32 0 0 16384 109092864 32768 0 0 0 0 0 0 0 0 0 0 0 0 0 0 0 0 0 0 0 0 0 0 0 0 0 0 0 0 0 0 0 0 0 0 0 1 5052 0 0 0 0 4368 0 0 0 0 0 0 134217760 16777216 1052672 130 0 2099201 0 0 0 1310720 131076 0 0 9728 0 0 16384 0 33554432 136 0 0 2097152 0 134217728 134479872 4096 0 0 67108864 2097154 20
shrinkage=1


Tree=10
num_leaves=31
num_cat=26
split_feature=1 15 1 1 1 18 0 3 3 4 15 15 2 1 1 4 15 1 1 1 1 15 1 1 1 15 1 1 1 1
split_gain=331.582 355.565 328.257 242.689 206.158 222.148 1816.38 2846.59 4516.29 3579.81 2063.61 968.126 2006.67 632.479 609.314 542.175 363.539 2245.28 1068.65 1066.39 1000.34 830.052 726.049 726.187 560.041 510.231 501.114 478.661 451.808 421.114
threshold=0 1 2 3 4 5 6 143101.50000000003 260540.00000000003 1995.5000000000002 7 8 9 10 11 2000.5000000000002 12 13 14 15 16 17 18 19 20 21 22 23 24 25
decision_type=9 1 9 9 9 1 1 2 2 10 1 1 1 9 9 10 1 9 9 9 9 1 9 9 9 1 9 9 9 9
left_child=1 2 -1 -2 -5 6 7 15 9 11 14 12 -9 -12 -8 -6 17 -7 -19 21 25 -18 -22 -24 -21 -20 -25 -28 -26 -29
right_child=3 -3 -4 4 5 16 10 8 -10 -11 13 -13 -14 -15 -16 -17 19 18 20 24 22 -23 23 26 28 -27 27 29 -30 -31
leaf_value=-0.24243605372324539 0.024152890930634621 -0.014276178370297099 -0.061340341856719417 0.021302394009393148 -0.011021868325384631 0.13188575239959902 -0.013622849718294708 0.0036604433757631738 -0.0044674214046164767 -0.17483406873489266 -0.090363627518644296 -1.5323309024302627 -1.4624377168490503 -0.022487588581266628 0.044040790546500522 -0.14809776442287576 0.0035904270014758813 -0.098724074680233545 0.15200954638922601 0.052564254601853787 -0.071294887550989103 -0.11368797585003527 -0.059822921805908688 -0.051551947342232243 -0.046581570297132002 0.029370515846752411 -0.044220365487074705 0.072154919008115215 -0.0010487223702458353 0.0098921901312141302
leaf_weight=11904 428067 352348 62788 446800 97453 141104 240271 1618 14129 5406 163364 4545 2207 859760 772099 40992 100402 99169 67964 191351 125530 151286 163853 138127 222739 67757 160165 111268 10060259 4563427
leaf_count=11904 428067 352348 62788 446800 97453 141104 240271 1618 14129 5406 163364 4545 2207 859760 772099 40992 100402 99169 67964 191351 125530 151286 163853 138127 222739 67757 160165 111268 10060259 4563427
internal_value=0 -0.027563 -0.090231 0.000606227 7.60762e-05 -0.00043475 -0.00986482 -0.110331 -0.40171 -0.809132 -0.00165376 -1.21881 -0.840072 -0.0333263 0.0303552 -0.0516085 0.000834079 0.0073349 0.00413769 -0.00258322 0.00602755 -0.0669056 0.00384128 0.00567754 -0.00103755 0.0907902 0.0078358 0.00953255 -0.00203505 0.0113743
internal_weight=0 427040 74692 1.94411e+07 1.9013e+07 1.85662e+07 2.20184e+06 166350 27905 13776 2.03549e+06 8370 3825 1.02312e+06 1.01237e+06 138445 1.63644e+07 5.63836e+06 5.49726e+06 1.0726e+07 5.39809e+06 251688 5.26237e+06 5.13684e+06 1.04743e+07 135721 4.97299e+06 4.83486e+06 1.0283e+07 4.6747e+06
internal_count=19868152 427040 74692 19441112 19013045 18566245 2201844 166350 27905 13776 2035494 8370 3825 1023124 1012370 138445 16364401 5638364 5497260 10726037 5398091 251688 5262370 5136840 10474349 135721 4972987 4834860 10282998 4674695
cat_boundaries=0 45 46 91 136 181 182 183 184 185 186 220 266 267 313 358 404 449 450 495 541 586 587 632 676 721 767
cat_threshold=0 0 0 0 67633152 0 0 0 0 2048 131072 537427968 4194306 131072 0 1310720 0 1048576 0 0 0 0 4096 0 0 0 0 0 0 0 0 0 0 0 1073741826 2155872257 49152 64 133120 0 0 512 8352 2155872256 134217730 288 0 0 0 0 67108864 0 0 0 0 0 131072 557056 4194304 131072 0 262144 0 0 0 0 0 0 0 0 0 0 0 0 0 0 0 0 0 0 0 0 0 0 0 0 0 0 0 0 134217728 8192 0 0 0 4096 2 134217728 1024 8 0 0 8 131072 0 0 32768 0 262178 128 0 136314888 0 2097152 0 0 16640 786432 0 131072 0 0 524288 256 64 268435456 0 0 0 262144 32768 16 0 276824064 0 8192 96 0 16896 136314880 0 536887296 0 2097152 33554432 0 0 0 0 32 0 0 8388608 0 0 65536 0 0 262146 262152 1024 536871936 3145730 67633152 2048 1 1048576 0 0 128 0 0 0 0 65536 0 0 1073741824 0 0 536870912 4108 81 5716 7168 2 0 0 0 0 0 131073 16 33689600 134225984 2 0 0 1024 0 0 0 2164262912 1024 0 0 0 0 0 0 0 2151813248 16830472 192 0 4227072 0 0 1024 24 0 0 0 0 0 524288 0 0 0 65600 0 0 16777216 128 0 0 0 0 0 0 578813952 4 0 384 0 65536 0 0 0 0 0 939524096 0 2097152 0 134217728 2147483648 65536 2147483652 4194304 0 5624 0 0 1 16 2464 0 0 0 0 0 67108864 128 0 0 0 0 8192 0 0 0 0 0 0 136315904 4980736 0 0 0 0 1048576 134742016 128 512 0 0 1024 16777728 67110912 0 67108864 0 0 0 536870912 0 2919235584 134217729 32768 0 2621440 8 0 1073741824 32768 0 1138688 0 0 0 0 528640 0 33554944 0 272629760 2101248 0 262656 0 0 0 65536 1 0 0 0 2097152 1409286400 0 0 0 0 0 150994946 2304 0 0 0 0 0 8 4 0 0 0 16384 0 0 0 0 0 67108864 128 0 0 0 0 0 0 0 0 0 0 134217728 137430528 4980736 0 0 0 0 0 0 0 512 0 0 1024 16777728 67108864 0 67108864 0 4194304 1048576 536870912 0 536870912 134217729 32773 516 2097152 40 0 0 0 0 0 0 0 0 1048576 0 0 0 0 0 1073741824 0 0 134234120 5308960 604111104 0 1179648 0 0 0 16 8388608 0 0 0 0 0 589824 0 0 0 4456448 0 0 33554432 1342177281 67108864 5 6 128 4162 536870912 0 12288 0 0 0 0 0 0 8388608 805306368 0 1048576 16801792 327680 131072 131078 260 0 0 2147483648 0 0 0 32 0 64 0 0 0 0 2048 131076 4 0 0 0 0 256 0 524288 2097152 524288 2097152 268435712 8 0 4 0 17039360 0 2147483648 0 0 24 0 16384 0 33554432 2147483648 2147483648 32832 2147491840 0 0 0 0 0 0 0 0 0 0 0 0 0 128 0 2181038080 0 0 0 0 134217728 1024 1051776 33554432 4210696 536870912 20 1 2049 1073741840 36866 0 335872 0 0 0 0 16 8388608 0 0 0 2097152 128 131584 0 0 0 65536 1 0 0 0 0 1342177280 0 0 0 0 128 150994944 260 0 0 0 0 0 0 4 35651584 0 0 272646148 384 1 0 0 0 0 0 0 0 0 0 10485760 4194304 65552 0 16818224 134217728 0 0 0 0 0 0 0 1048576 0 268435456 32 0 0 1024 268435456 256 8192 0 0 0 2097152 16 32768 0 4096 268451840 256 117440552 512 144 0 1275068418 0 8388608 16777216 512 0 0 68157440 2147483648 0 0 65600 33554688 0 0 0 2048 33554432 0 0 0 0 524288 1073741824 0 0 0 0 0 0 2147483648 65536 16384 0 8388672 16777216 0 526368 0 2147483648 2147483648 134217728 0 0 268435456 0 33554432 262144 0 0 516 0 0 8192 0 0 0 0 536870912 536870936 4718634 133120 131076 1179648 0 0 0 16 128 8192 0 0 0 0 536872960 0 0 0 536870912 0 0 0 0 536870912 67239936 2 128 32768 0 0 0 1073741824 262144 528384 0 0 512 0 0 0 67109888 0 0 2097408 6291456 532490 8421376 8192 66048 0 16781312 0 0 512 0 2147483648 0 0 4227072 537133056 0 0 0 0 0 0 0 0 2 0 0 2147483648 32
shrinkage=1


Tree=11
num_leaves=31
num_cat=27
split_feature=1 1 15 1 1 1 15 1 10 13 15 1 1 1 1 1 1 1 1 1 1 1 1 1 10 1 1 1 13 6
split_gain=318.231 302.902 326.456 482.658 284.634 240.571 386.439 399.726 427.474 254.43 226.69 1882.94 1682.19 1511.36 1492.4 1060.69 979.098 889.102 831.039 576.971 557.049 540.046 497.018 466.856 457.03 1484.08 768.356 542.56 507.119 1098.84
threshold=0 1 2 3 4 5 6 7 1012.7500000000001 8 9 10 11 12 13 14 15 16 17 18 19 20 21 22 1003.4500000000002 23 24 25 26 6.0500000000000007
decision_type=9 9 1 9 9 9 1 9 10 1 1 9 9 9 9 9 9 9 9 9 9 9 9 9 8 9 9 9 1 10
left_child=-1 2 3 -2 -4 6 7 -3 -9 -10 12 -12 -7 -14 -13 -15 -16 -18 -17 -19 -20 -22 -21 -24 25 28 -27 -28 -23 -30
right_child=1 5 4 -5 -6 10 -8 8 9 -11 11 14 13 15 16 18 17 19 20 22 21 24 23 -25 -26 26 27 -29 29 -31
leaf_value=-0.027138260706144886 -0.017114391708013366 0.052749436020738602 0.065082897339973439 0.16335319296287559 -0.011682046446374559 0.09827275592444594 0.039251402021557177 -0.13938889584549588 -0.19949182419623393 0.031547683943358183 -0.10238560506596307 0.099724575953162267 -0.10282864777704011 0.070093857881354873 -0.072387754577524943 0.056688476000142068 -0.060439275156649014 -0.048427222700371947 -0.066046497135832577 0.062700210424966166 -0.056910607470717404 -0.32044512059404417 0.054449712974262682 0.0051909586642712724 -0.0061070864489743406 0.56017941217435152 -0.35051431053174792 0.043744774634194135 -2.7433032588506352 -0.59276040674319064
leaf_weight=422916 23572 43724 73596 39916 140496 158280 353247 40367 5427 38639 166425 163148 157449 189118 168057 209165 204931 189086 157394 159590 203400 1737 197078 8098100 8000172 2843 3529 255554 327 869
leaf_count=422916 23572 43724 73596 39916 140496 158280 353247 40367 5427 38639 166425 163148 157449 189118 168057 209165 204931 189086 157394 159590 203400 1737 197078 8098100 8000172 2843 3529 255554 327 869
internal_value=0 0.000589256 0.0333857 0.0963565 0.0147084 0.000114291 0.0221861 -0.0248513 -0.0650387 0.00305563 -0.000454346 0.00302744 -0.00393858 -0.0057007 0.00493859 -0.00400594 0.00322346 0.00465955 -0.00559216 0.006203 -0.00710245 -0.00600684 0.00742483 0.00636132 -0.00475405 0.0361148 0.0440463 0.0383612 -0.67006 -1.17095
internal_weight=0 1.94452e+07 277580 63488 214092 1.91677e+07 481404 128157 84433 44066 1.86863e+07 9.34642e+06 9.33984e+06 9.18156e+06 9.17999e+06 9.02411e+06 9.01684e+06 8.84879e+06 8.83499e+06 8.64385e+06 8.62583e+06 8.46843e+06 8.45477e+06 8.29518e+06 8.26503e+06 264859 261926 259083 2933 1196
internal_count=19868152 19445236 277580 63488 214092 19167656 481404 128157 84433 44066 18686252 9346415 9339837 9181557 9179990 9024108 9016842 8848785 8834990 8643854 8625825 8468431 8454768 8295178 8265031 264859 261926 259083 2933 1196
cat_boundaries=0 45 90 91 136 181 225 226 269 270 271 317 363 408 453 499 544 590 635 681 727 766 808 853 895 937 979 980
cat_threshold=16779264 1 0 0 524288 0 0 0 0 134217728 0 0 4096 0 1073741824 0 0 0 0 256 16777216 514 0 0 1048576 0 8192 0 2147483648 0 0 32768 524288 0 1073741824 1 4608 256 0 33554432 2382364672 67108864 33554464 32768 4718592 536870912 40960 0 0 1048576 1 2147483664 0 64 8916994 131072 524288 1024 4325376 262176 0 0 0 0 33816576 8388608 0 0 0 0 2097152 4352 0 0 0 0 268435456 0 2048 0 0 10485760 0 0 0 0 8 0 0 134217984 14 0 0 0 0 1048576 1 16 0 0 8392704 0 0 0 0 0 0 0 0 0 262144 8388608 0 0 0 0 0 4096 0 0 0 0 0 0 2048 0 0 2097152 0 0 0 0 0 0 0 134217984 0 40960 0 0 0 0 16 0 0 8392704 0 0 0 0 0 0 0 0 0 262144 8388608 0 0 0 0 0 4096 0 0 0 0 0 0 2048 0 0 2097152 0 0 0 0 0 0 0 134217984 128 0 335544320 0 83902464 0 0 33558528 0 0 0 32768 0 16793600 0 2147483648 262144 4 0 0 536870912 0 0 536871296 0 4096 16777216 0 0 0 0 256 2 0 0 0 0 1048576 256 8 0 2147500032 2151694336 536870920 176 128 0 268435456 0 67108864 0 0 0 0 0 0 32768 0 16777216 0 0 262144 0 0 0 0 0 0 536871040 0 4096 16777216 0 0 0 0 0 0 0 0 0 0 1048576 0 8 0 0 16384 32 4550 0 16 544 0 0 4325376 1073741824 0 268435456 1 0 0 0 0 16384 4194304 524288 0 4195328 1073741824 0 0 0 0 0 64 268435456 0 0 0 0 0 131584 68 134217728 0 0 0 0 0 0 134479872 0 256 2184216576 168 0 0 32 0 0 4325376 1073741824 0 536870912 0 0 0 0 0 0 0 524288 0 140510208 0 0 16 0 0 0 320 335544320 0 0 0 0 0 1179648 68 134217728 0 0 0 0 0 0 262144 67108864 768 2150662152 162 3221250080 268435456 134240256 0 2155880448 0 524288 0 0 16416 0 4194304 0 0 134217736 2097152 0 0 0 0 0 1048577 0 0 0 135266304 524800 16 0 0 0 0 0 24 0 0 4194304 0 0 0 0 2 0 0 131072 3221233696 268435456 134240256 1 8396800 67108864 0 0 0 16384 33554432 4194304 0 0 8 0 1024 0 0 0 65536 1048577 0 0 0 4194432 524352 0 0 4194304 0 8192 0 24 0 0 4194304 0 0 0 0 0 0 2097152 131072 0 1074266112 512 0 0 0 128 393504 268435456 2097152 0 537001984 0 0 16384 0 0 0 512 1073743872 0 0 0 33619968 0 0 0 0 0 4096 4194304 2684354560 33554432 33554432 0 0 0 0 0 0 0 134217728 2 6 1677721600 8 0 0 16 0 0 0 128 262400 536870912 2097152 0 537001984 2 0 0 128 1049088 33554432 136315136 0 0 16 0 0 0 256 67108864 0 0 69632 4194304 2147483648 1048576 0 0 0 0 0 0 0 0 0 67108864 262148 1677721640 0 524288 1024 0 0 0 4194304 532480 0 0 0 134218752 0 0 0 8388640 0 1077936128 524816 32768 8194 0 0 33556480 0 0 0 0 0 0 0 0 1107296368 0 1052672 0 0 0 0 0 0 1048576 2129922 2 0 2 0 0 32784 0 0 0 0 524289 134217728 1048833 0 0 2 0 4096 4194336 512 3221225472 17301504 0 0 0 0 0 0 268435456 536870912 0 0 2048 0 262144 2147483888 0 0 0 0 0 33554432 0 0 1572864 4 134217728 33554432 0 0 0 2147483648 268435456 0 32 0 16777216 0 0 67108880 0 0 0 0 0 0 16777344 268435456 0 0 0 65536 16384 268435456 536871936 0 0 0 0 4096 4194432 33574912 0 0 2048 524288 0 2105344 1 565248 0 134217728 10240 64 1024 0 0 129 536936448 0 0 0 1048616 0 16810112 0 0 8388608 1 0 35652608 65536 0 0 67174400 0 0 0 0 16793728 67714 32 0 512 0 0 0 0 0 0 0 33556480 0 0 0 0 512 0 0 4 0 4458496 0 0 0 603979776 0 2147483648 16 0 7340032 0 1 262144 1048576 11 0 2 0 0 0 196608 0 0 0 4194336 41975808 16777217 0 2113792 32 16384 0 0 0 0 0 0 524288 16384 4196352 0 128 2684420096 134217728 0 134217728 65544 131072 6291588 0 0 546308096 134217728 8 536870912 65536 0 0 1048576 1024 0 0 0 0 16386 48 0 0 0 16384 0 0 0 0 0 2048 0 0 0 2 1024 4096 0 0 0 536936448 65536 8388608 0 67108864 0 268435488 0 0 1056768 2 16777216 0 1048576 0 67108864 135168 16 0 0 147456 33652736 512 0 0 0 0 0 0 0 0 0 8192 0 17039488 0 16 512 0 268451840 0 0 0 0 0 0 0 0 0 83951680 524800 0 1073741824 128 268437504 0 2302672896 603979776 1610629120 2097152 20480 0 0 262144 0 0 0 18432 0 128 8 8388608 0 0 67108864 0 0 0 0 0 0 272 0 0 0 0 0 0 2 0 0 268435472 2 8404992 67584 34816 67174400 16 16384 32 262272 71303680 2112 0 0 16777216 0 0 0 268566528 524544 134217728 50339840 0 0 0 0 0 0 0 0 0 0 64 0 0 0 0 0 16 0 0 0 0 278528 16777216 289406984 136314880 8192 274688 1048576 262144 0 8388608 772 0 0 2097152 0 0 0 2147491840 0 1024 2147483904 512 0 0 0 0 0 65536 0 0 2 98304 226
shrinkage=1


Tree=12
num_leaves=31
num_cat=29
split_feature=1 1 1 12 1 1 1 1 1 1 1 1 1 15 1 1 1 1 1 1 1 1 1 14 1 1 1 1 1 1
split_gain=265.094 212.821 178.762 176.911 544.24 570.608 445.525 449.468 414.204 361.75 355.037 268.788 277.576 268.702 818.179 500.336 391.975 361.903 354.726 337.036 300.623 275.718 263.701 257.045 239.117 217.085 181.935 177.53 178.937 175.241
threshold=0 1 2 7.8500000000000005 3 4 5 6 7 8 9 10 11 12 13 14 15 16 17 18 19 20 21 22 23 24 25 26 27 28
decision_type=9 9 9 10 9 9 9 9 9 9 9 9 9 1 9 9 9 9 9 9 9 9 9 1 9 9 9 9 9 9
left_child=-1 -2 -3 26 23 -6 -7 -8 -9 -10 -11 -12 -13 14 -14 -16 -15 -18 -17 -20 -21 -19 -22 -5 -23 -24 -4 -26 -29 -28
right_child=1 2 3 4 5 6 7 8 9 10 11 12 13 16 15 18 17 21 19 20 22 24 25 -25 27 -27 29 28 -30 -31
leaf_value=0.030199950776944554 -0.024109989351067729 0.020099889794504524 -0.024023842777389125 -0.061871520159415799 -0.23113129437973223 0.37609104864812787 0.20962775675647261 -0.18747130165666101 -0.16638169252200333 -0.14302791421311303 0.17211873136607442 0.14302548350654809 0.47166387990038638 -0.21670312760163721 -0.40721632256785534 0.3500089225085638 0.17358135309337958 0.13066758115818541 0.29443025066814593 -0.28181092227608362 0.24707773720589207 -0.15116789162861313 -0.21645505583506275 -0.56277832106559766 0.10301988505614096 0.014633708213552322 0.022651467486612988 0.08666771262381974 -0.027072591437136764 0.00013598140638011833
leaf_weight=286460 372673 433232 305627 1685 11857 2966 9051 13570 14665 18812 8570 12237 4051 9937 2725 3263 9838 11802 4220 3483 4726 14330 4204 2650 11427 115052 352677 14305 410292 17397765
leaf_count=286460 372673 433232 305627 1685 11857 2966 9051 13570 14665 18812 8570 12237 4051 9937 2725 3263 9838 11802 4220 3483 4726 14330 4204 2650 11427 115052 352677 14305 410292 17397765
internal_value=0 -0.000441826 1.73712e-05 -0.000446023 -0.0158208 -0.0136773 -0.0100092 -0.0116492 -0.0145484 -0.0110844 -0.00764828 -0.00369436 -0.00606649 -0.00899413 0.0292812 0.0162309 -0.0202503 -0.0161099 0.0248111 0.0167271 0.00751078 -0.0201515 0.0156607 -0.368668 -0.0241067 0.00646993 0.000166818 -0.0199275 -0.0232386 0.000583346
internal_weight=0 1.95817e+07 1.9209e+07 1.87758e+07 719718 715383 703526 700560 691509 677939 663274 644462 635892 623655 141724 137673 481931 471994 134948 131685 127465 462156 123982 4335 450354 119256 1.80561e+07 436024 424597 1.77504e+07
internal_count=19868152 19581692 19209019 18775787 719718 715383 703526 700560 691509 677939 663274 644462 635892 623655 141724 137673 481931 471994 134948 131685 127465 462156 123982 4335 450354 119256 18056069 436024 424597 17750442
cat_boundaries=0 45 90 135 175 217 249 292 338 384 428 471 517 518 563 604 650 694 739 785 830 874 919 920 965 1009 1052 1097 1139 1182
cat_threshold=536870912 40976 1024 0 1048576 1 524288 33554432 0 32 524288 67109888 0 0 0 2097152 0 33554434 128 268435456 536870912 0 0 256 0 135266304 640 0 0 65536 0 4096 512 0 0 0 0 0 0 0 0 40960 2097152 0 8224 0 1073741824 268435456 268435456 67108864 0 268435456 33 65536 0 33554432 0 32768 1048576 0 0 128 0 0 2048 1310720 1280 16 553648128 0 0 64 0 0 4194304 0 536879104 2147483648 32768 0 512 0 0 0 0 0 0 16777220 2097664 256 0 0 0 0 0 0 4194304 4096 0 0 16809984 16 16777217 0 0 8388608 2184183808 8192 272 0 2 0 0 0 0 0 2048 128 0 0 0 0 4194304 2147483648 68157440 0 2112 33554432 0 2107392 0 0 557064 0 2048 268435456 33554432 67141632 0 0 4194304 0 131072 4194304 0 0 0 0 4096 0 0 0 0 0 0 0 0 0 32768 256 2097408 1073741824 16777216 1342179336 1308753920 538443904 402654208 0 0 0 0 0 0 0 33554944 0 64 0 0 553680896 32 0 1048832 268451904 4096 0 1073741824 0 536870913 0 0 0 0 0 16384 0 16 0 0 0 512 8388608 0 129 262144 142622720 0 0 0 0 16384 262144 0 4194304 68157569 0 2097152 50462721 0 512 8 0 0 16 0 671088640 0 0 0 0 268959744 0 0 0 0 0 0 0 0 0 2375680 344064 0 0 10487808 2147521536 0 2147483904 44 32 65536 2097152 128 65536 0 0 262152 525312 131076 0 0 0 0 0 0 0 0 0 0 65536 0 0 4194304 4 16 2097152 2147483648 33554432 16 33 0 0 0 0 0 0 64 0 4194304 1048578 263954 536870912 260 4096 0 0 1536 0 67108864 0 0 0 65536 0 32 2147516672 268435456 32768 0 0 0 67108864 0 0 0 0 0 1073741824 536870912 0 131072 276824064 2097152 0 0 0 32768 0 4194304 0 1149243392 2 536872960 0 0 0 32768 34 0 1 0 0 0 0 0 1610612736 0 1024 134479872 268435464 0 262144 0 0 0 4194304 1077936128 2 0 0 0 268435456 0 536870976 0 0 2097152 2164260872 0 0 0 0 0 0 0 4 32 134221824 268566528 8390656 0 1024 4194308 8 0 0 0 0 0 1024 12288 0 0 0 8192 0 0 67109888 0 33816584 8192 2147484672 0 0 0 0 1024 2 40 268435456 33685504 536870912 0 0 65536 0 536870912 8192 0 256 4 134219008 0 0 65536 536870912 0 570425344 8 2048 8212 67108864 0 0 256 524288 2147483650 541065216 0 4194304 0 4194304 4096 0 16 0 0 0 0 0 0 67248128 1179666 4194304 1024 8 524320 0 0 2 2 0 0 0 0 0 512 0 0 0 33554432 0 0 0 4 8192 3145728 0 2149580816 2048 134742016 805306368 0 64 0 1073741824 2684354816 1 0 0 0 0 0 0 1050624 268435456 0 262144 49153 0 0 8192 0 0 0 0 0 0 2147483648 0 0 0 32 32 16384 0 17 5248 0 0 0 0 8656897 0 128 0 256 2048 0 32768 1024 4 2048 0 33792 524288 0 0 0 32769 0 0 0 0 1 0 0 0 0 4210688 0 33554432 0 524288 2097152 0 0 0 64 0 0 147849216 1232 0 0 0 0 1074266112 0 2 2052 50339840 0 10485760 0 536889472 134217728 10485760 73728 0 65536 134217728 0 0 262656 0 0 8912896 0 0 0 0 0 0 0 0 32 0 0 0 0 135299072 268435460 4194304 1073742848 1048704 2281703456 0 37750784 0 128 0 256 67584 4096 524289 0 131072 0 0 8388608 0 8 0 0 0 0 0 0 16416 65536 0 0 0 0 16384 0 0 2048 2048 8192 0 0 0 0 0 0 0 1168 128 32848 8 2 0 0 16384 2 4 16777217 0 1048576 33554464 0 0 42074113 65536 0 0 134217728 524288 0 512 0 34078720 8192 0 0 528 0 0 0 0 0 0 0 33554432 0 2097152 0 524288 0 4096 131072 32 1024 0 0 17301504 4325378 0 33554432 16384 128 65536 4096 18874368 0 0 0 4096 0 1073741824 8 0 8192 2147483648 0 0 2147484160 0 134225920 0 0 0 0 0 0 0 0 0 0 68157440 0 0 67108864 64 0 67108864 84934656 0 1048576 0 65536 16384 512 16777728 0 0 0 0 262144 0 131072 32768 67108864 83886080 131072 0 32768 0 4096 0 0 0 16384 0 2 0 0 0 2155872256 0 0 8404992 0 1024 0 0 256 33554564 0 16384 8192 33554434 128 0 0 0 16384 0 536870912 536870916 9216 544 16 1073741824 4 4 1073741824 0 16 2 2097152 0 0 4096 16777216 0 524288 1024 0 67108864 0 0 0 0 0 0 0 0 33554433 0 0 2097152 16777232 256 202375168 0 256 16384 0 67633152 0 0 0 4096 1 64 67108864 0 514 0 196608 16384 2097152 0 1073746016 268435456 546377728 4195328 0 0 0 0 1024 0 0 256 0 0 0 0 0 4194304 0 0 0 0 537395200 0 524288 128 0 4096 0 268435456 32 10240 2181038352 32774 0 0 0 0 0 0 0 128 0 0 0 32 0 0 0 0 33554432 0 1073741824 0 2147483648 0 0 0 0 262656 262208 524296 536870912 6144 285213184 0 256 0 2147483648 0 0 0 512 4421667 4194304 8388608 0 0 0 268437504 0 65536 0 1073741824 1 4096 1024 0 1036 268435456 17039360 1073745920 131072 262144 0 524288 0 1024 0 0 0 0 0 0 0 0 4 0 536870912 0 131072 4194304 0 536887296 134217728 65536 0 1056768 2 512 0 2 0 0 64 142606336 64 0 2147483648 1028 2048 512 0 139280 131072 0 512 64 1073741824 16777216 32 0 4096 0 2048 0 0 0 0 0 0 0 65792 4096 0 0 0 2 8 0 268435456 134221824 2080 33587328 0 0 2052 128 0 0 0 134217728 131072 0 32800 0 0 135168 67108864 536870912 524288 9437184 8388608 65536 4096 16777216 4 0 0 0 0 0 0 0 4194304 0 0 0 262144 69206016 3145728 0 8 0 0 536887328 0 0 1073741824 4096 1073741824 262144 32 8390784 0 0 64 512 1074790400 0 0 0 0 538968065 16777216 0 0 64 0 0 33556480 1 67141632 0 0 0 0 32768 16 0 0 0 1048576 0 0 1073872944 128 268435456 0 0 262144 0 0 4096 9437184 2375680 524304 512 2 33554432 0 1024 262144 537133056 0 128 0 4194304 65536 0 8388736 4194308 0 537133056 0 0 4 2147483648 0 0 0 0 0 0 0 256 0 0 0 268699648 0 16 33554432 0 0 0 0 50331648 0 0 8192 0 0 4097 0 0 262144 0 262144 0 4195584 0 16416 0 16 67208196 0 0 0 8 0 0 0 0 0 1678258176 0 4096 0 4194304 65536 67108864 2 4096 0 256
shrinkage=1


Tree=13
num_leaves=31
num_cat=29
split_feature=1 1 11 1 1 1 1 1 1 1 1 1 1 1 15 1 1 1 1 1 1 1 1 1 1 1 1 1 1 1
split_gain=156.24 147.639 135.792 883.409 731.011 462.398 444.398 348.391 316.679 327.018 272.26 238.253 204.48 196.407 187.748 835.301 554.174 512.96 391.727 332.979 314.623 292.869 280.399 240.978 231.204 225.054 212.061 193.491 191.647 180.489
threshold=0 1 325.00000000000006 2 3 4 5 6 7 8 9 10 11 12 13 14 15 16 17 18 19 20 21 22 23 24 25 26 27 28
decision_type=9 9 10 9 9 9 9 9 9 9 9 9 9 9 1 9 9 9 9 9 9 9 9 9 9 9 9 9 9 9
left_child=-1 -2 29 -4 -5 -6 -7 -8 -9 -10 -11 -12 -13 -14 15 -15 -17 -16 -18 -19 -20 -22 -21 -23 -25 -24 -27 -26 -28 -3
right_child=1 2 3 4 5 6 7 8 9 10 11 12 13 14 17 16 18 19 20 22 21 23 25 24 27 26 28 -29 -30 -31
leaf_value=-0.018885140706767407 -0.016248619413539847 0.02395608507576643 0.19854249023869783 -0.1719012673478911 0.13579482587674083 -0.1169816925538343 -0.096804274275645918 0.11516913561009127 0.10100844652307425 -0.085872718471137116 -0.076015981588520576 0.089501748682561874 0.08109467297912025 -0.26065584540860598 0.16832857655320618 0.2413640334457178 -0.17811430809097756 -0.14172901477054817 -0.1447461226697602 0.1177333448222329 -0.1151292238286996 -0.091388737181771942 0.092898929503597599 -0.072530956137762573 0.17926875466317552 -0.10513366935628689 -0.089627699921443121 0.043046844401092049 -0.0017280765694869351 -0.00042048555339230996
leaf_weight=428615 517442 309303 24308 22630 28265 28483 30541 28650 37782 31018 32433 32134 36681 10115 17528 12038 9377 17292 10241 19235 13006 14058 23207 16925 10723 21408 25566 368875 822138 16868135
leaf_count=428615 517442 309303 24308 22630 28265 28483 30541 28650 37782 31018 32433 32134 36681 10115 17528 12038 9377 17292 10241 19235 13006 14058 23207 16925 10723 21408 25566 368875 822138 16868135
internal_value=0 0.000416475 0.000872205 0.00927795 0.00660251 0.0089829 0.00683509 0.00898493 0.0109918 0.00910412 0.00685456 0.00875614 0.0106137 0.00886288 0.00698552 0.0234309 0.0297486 -0.00110129 0.0239955 -0.00430033 0.0283681 0.0325567 -0.00169181 0.0372377 0.0418001 -0.00426745 -0.00686302 0.0468995 -0.00438008 1.84613e-05
internal_weight=0 1.94395e+07 1.89221e+07 1.74466e+06 1.72035e+06 1.69772e+06 1.66945e+06 1.64097e+06 1.61043e+06 1.58178e+06 1.544e+06 1.51298e+06 1.48055e+06 1.44841e+06 1.41173e+06 465358 455243 946374 443205 928846 433828 423587 911554 410581 396523 892319 869112 379598 847704 1.71774e+07
internal_count=19868152 19439537 18922095 1744657 1720349 1697719 1669454 1640971 1610430 1581780 1543998 1512980 1480547 1448413 1411732 465358 455243 946374 443205 928846 433828 423587 911554 410581 396523 892319 869112 379598 847704 17177438
cat_boundaries=0 44 89 132 174 220 265 302 348 394 439 484 530 573 574 619 665 710 755 801 845 891 934 980 1022 1066 1111 1156 1201 1246
cat_threshold=0 0 131072 0 0 0 16842752 142606336 0 4194560 0 0 0 16777220 0 0 0 0 0 0 0 0 8192 0 17039360 4853760 16793600 17920 0 2048 0 262144 262144 0 0 4096 0 268451840 17 0 0 0 2048 81920 0 0 0 0 0 134221824 2 16384 0 1048576 0 2155872256 0 4194304 0 0 32 512 0 0 8388608 0 0 128 1073741824 0 0 0 16448 32 0 0 16777216 805308416 524288 1048576 0 0 33554432 67125248 1073741832 0 0 8192 2566914048 0 2147483648 32 0 1073774592 131073 16 524288 67133440 0 16 524288 0 0 0 32 0 0 0 0 512 8192 16777218 262144 1048576 0 0 0 0 8388608 0 0 524288 56 0 0 8 0 0 0 0 2415935488 612368384 131072 128 0 0 8650816 262144 131072 1073742080 4325376 0 0 0 0 131072 0 0 0 134217728 0 262144 0 539623520 0 0 0 268435456 0 0 0 0 0 8192 268435460 2147483648 100696064 32 4456448 0 0 0 0 8192 0 1073774594 512 0 512 0 32 1 1073741824 0 0 16384 1073741824 1073741824 32768 0 0 64 2 0 536872964 4198401 16 134217728 256 64 0 134217728 0 0 0 0 0 0 0 0 0 536870912 0 0 0 0 4456449 0 538968064 2 536879104 0 4096 128 2147483648 32 512 33591296 1280 0 0 0 2 268435456 16778240 33554440 262144 0 16777216 1024 0 134512768 0 0 131072 128 0 0 0 8192 0 0 67108864 0 0 2049 0 0 0 0 0 0 0 0 1 0 0 0 37748736 16777216 2097152 0 4194312 32768 2 1024 4 2098176 32 0 0 8388608 0 256 16384 1 1073741824 2155872260 0 0 134225920 67108864 8388608 0 0 0 1024 4096 33554432 131072 8404992 16 0 0 16 0 33558528 0 18432 0 0 0 0 0 0 66048 8912896 1 16793856 0 1074266112 0 32 33554432 1610612736 25165824 0 0 0 1048576 0 0 0 0 134217730 8256 4194304 0 0 2097152 0 0 0 0 2147483968 0 0 256 1024 0 0 268435460 525344 0 1032 0 268435456 0 167772160 67108864 0 8390912 64 0 536870912 1048576 192 0 0 512 0 2 0 0 0 0 0 0 0 0 1024 0 0 0 33554432 524288 536870912 64 0 4 0 0 1174405120 8 1 0 0 2147516416 8192 0 0 131074 536870912 32 4096 0 134348800 134217728 0 256 0 0 0 524292 163840 67108864 4194304 4608 18432 0 0 0 0 0 0 37376 512 0 0 1024 0 0 6 0 0 0 0 32768 4096 16809984 0 0 1073758208 0 0 8650816 285212672 0 0 0 0 128 0 0 0 0 0 8 0 524288 0 65544 0 268435456 262144 42242064 4 1024 0 16777216 16384 16384 0 0 256 32768 0 0 0 0 0 32 1048576 128 268435456 1310744 2147483652 0 2 4194304 0 67108928 16777216 0 268435456 0 16 0 33554688 0 64 8192 4194304 256 134225922 0 0 0 128 0 524288 0 1048576 0 0 0 8388608 0 8 0 0 0 0 32768 0 67108864 128 0 0 1 0 524288 0 2 0 1073741826 536870912 0 0 2097152 0 33554432 4194304 0 536870912 0 8192 131200 1 32768 0 16 32896 0 0 0 8 0 0 128 0 0 33685504 256 6144 0 4 4 0 1048576 0 18087936 1073742848 6432 0 0 0 0 2048 1024 1048576 0 0 134258704 64 0 0 0 0 0 16 4 134219776 131072 4096 0 524289 524288 65536 2097152 805306624 0 0 512 67108864 0 2097152 1 134217728 0 0 0 0 0 0 0 33587204 2 8 0 0 0 8 4194304 0 0 1048592 0 0 65544 16842784 4 0 0 0 0 33554432 16384 4194312 4194304 0 0 0 0 0 0 0 0 524292 0 16777216 0 0 268697600 136314880 0 263168 0 0 32768 0 0 2181038088 1090 4 64 0 1024 0 402655232 2415919104 0 0 65536 4 64 16 266240 0 0 0 0 0 134217728 2101248 4352 0 0 65536 0 256 1073741824 0 0 0 67108864 0 2099200 0 0 0 524288 1 0 0 0 0 4 514 794624 0 0 0 0 268435456 0 0 262144 65544 12 131072 0 266240 8192 8 0 0 256 0 2155872256 256 81920 0 70254592 0 256 1073741824 0 0 4194304 0 0 2080 0 0 0 524288 1048576 0 0 0 134217728 0 4 794624 1174405408 272629760 280576 8 67108864 328 0 0 2048 2048 0 0 0 524288 0 0 0 268435456 0 0 4194304 16777216 0 0 8192 0 8192 0 0 0 0 0 0 0 17039616 0 8388608 256 0 0 0 0 0 134217728 66560 128 0 0 0 0 0 269484032 0 65536 64 285212672 0 528 65536 0 4097 2147483648 67141632 2147483648 8192 4096 0 1048578 268570624 164868 0 0 0 0 0 0 0 671088640 0 0 0 0 2097152 0 0 0 0 512 65536 512 128 0 0 0 134234112 16 0 1024 0 0 0 537264128 0 0 0 0 1048584 32 0 33554432 2214592512 2048 0 33554432 33554432 0 131200 256 0 0 0 2181038080 2147483648 0 0 0 0 0 0 16777216 0 1073774720 131088 132096 0 32 0 64 0 0 0 1081344 0 270336 4 268959744 0 0 0 0 0 2147483648 2147516930 0 2048 16 0 2 33554464 34078724 0 0 536870912 131072 0 4194816 131072 0 0 1048576 0 0 2097152 0 0 0 0 671154176 32768 4196352 0 0 0 65536 536870912 33554432 0 0 525312 8388608 1408 0 0 2080 0 4096 0 2097152 2097280 0 4 0 16384 6 0 1024 8192 1 1048576 0 0 0 0 0 0 16384 0 0 0 587202560 1024 0 262144 0 64 0 64 0 0 0 2147485696 0 0 4 0 536870912 134250496 0 16384 2214592512 1081344 0 0 0 16 0 0 0 16 0 1024 512 16 0 0 4 1073741824 16 1024 0 524288 131072 67174400 256 262144 0 536940864 0 0 32768 0 1048580 512 0 0 0 32768 8388608 0 65536 24577 0 0 0 256 33554432 131072 16 0 270008320 2150629408 0 536870912 256 16 0 0 4 0 65536 2 512 0 0 0 0 0 536870912 0 65538 128 0 0 2 67633152 0 0 0 0 0 1073758720 32 0 0 0 268435456 1154 1073743872 69206016 4096 1073741824 1024 264 0 0 0 1048576 0 72 262912 0 268435456 0 0 0 0 0 0 262144 32 0 1 0 0 0 16400 256 0 0 0 67108865 8 0 0 0 0 0 4194304 32768 0 0 4096 0 538968064 0 65536 0 0 134217728 256 8192 8388608 0 0 142606336 0 268468224 8388608 0 0 16777216 0 2147485955 0 0 8192 0 0 0 201850880 82432 16 0 1073741824 65536 2097280 0 0 0 262144 0 2048 4194304 0 67108872 0 0 268435456 0 32 134217736 2097152 0 0 0 512 0 2147549216 0 0 16777216 2097152 0 4194304 8388608 270532608 33554432 4224 128 0 0 0 16 0 2097152 32 0 41088 0 0 0 0 0 0 0 0 0 0 134217858 143360 285212672 33554568 8390656 134217728 0 0 0 0 0 0 0 268435456 8388608 8192 0 512 0 0 4 2113536 67108864 0 4194304 4194560 524288 0 0 1280 0 0 1
shrinkage=1


Tree=14
num_leaves=31
num_cat=27
split_feature=11 1 1 1 1 1 15 1 1 1 13 15 1 8 1 1 15 1 1 10 1 1 1 1 1 15 1 1 1 1
split_gain=133.221 694.038 639.347 446.957 387.277 377.128 370.468 316.814 297.397 240.383 239.072 232.341 506.599 412.743 226.18 220.33 214.373 386.653 213.233 209.395 806.133 663.19 432.975 319.891 290.97 234.031 659.477 546.231 454.35 365.455
threshold=105.00000000000001 0 1 2 3 4 5 6 7 8 9 10 11 -6.7499999999999991 12 13 14 15 16 1032.5500000000002 17 18 19 20 21 22 23 24 25 26
decision_type=10 9 9 9 9 9 1 9 9 9 1 1 9 10 9 9 1 9 9 10 9 9 9 9 9 1 9 9 9 9
left_child=1 -1 -3 6 16 11 -2 -7 -9 -6 15 12 13 -4 -10 -8 17 -5 -11 -20 -21 -22 -23 -24 -25 28 -27 -28 -26 -30
right_child=3 2 5 4 9 7 10 8 14 18 -12 -13 -14 -15 -16 -17 -18 -19 19 20 21 22 23 24 25 26 27 -29 29 -31
leaf_value=0.088980175037897111 0.0089062035920133859 -0.088314156113359882 1.4164770349656066 0.29066761273729724 -0.033713870924848309 0.064408096273253029 0.08789478085209379 0.054601137220568863 -0.046298828533141545 -0.028828932862251896 -0.10141065269369491 -0.043565410320305309 -0.12429507152433421 -1.0494584305916894 0.003216283129062688 -0.063223421057117812 0.027997683523393421 0.048388397739255129 -0.0010860085072068647 -0.43104640992261573 0.47985375788857371 -0.29293406700517327 -0.22144690870878808 0.32012025748948714 0.42607556219335319 -0.65443229550296611 0.58643942949339256 -0.014179891987178965 -0.26020302849584143 0.076500511183332939
leaf_weight=93531 80238 77047 73 9163 232711 86092 14411 111501 93522 274122 104510 89322 7267 967 6743929 29142 168637 23414 11485360 3572 3480 3824 4256 4058 3581 1541 1570 36342 3354 77615
leaf_count=93531 80238 77047 73 9163 232711 86092 14411 111501 93522 274122 104510 89322 7267 967 6743929 29142 168637 23414 11485360 3572 3480 3824 4256 4058 3581 1541 1570 36342 3354 77615
internal_value=0 0.00339639 0.00228599 -0.00197428 -0.00116291 0.00326477 -0.045816 0.0041214 0.00337441 -0.00188439 -0.0754695 -0.0584572 -0.218338 -0.868022 0.00253895 -0.0132121 0.0423482 0.116603 -0.00126206 -0.000612193 0.037392 0.0494037 0.0383662 0.0479623 0.0569325 0.0482945 -0.0153034 0.0108409 0.0779691 0.0625227
internal_weight=0 7.30325e+06 7.20972e+06 1.25649e+07 1.23366e+07 7.13267e+06 228301 7.03504e+06 6.94895e+06 1.21354e+07 148063 97629 8307 1040 6.83745e+06 43553 201214 32577 1.19027e+07 1.16286e+07 143193 139621 136141 132317 128061 124003 39453 37912 84550 80969
internal_count=19868152 7303251 7209720 12564901 12336600 7132673 228301 7035044 6948952 12135386 148063 97629 8307 1040 6837451 43553 201214 32577 11902675 11628553 143193 139621 136141 132317 128061 124003 39453 37912 84550 80969
cat_boundaries=0 44 86 131 173 214 215 261 306 351 352 353 392 432 476 477 519 565 610 656 701 745 790 791 833 872 916 961
cat_threshold=0 129 0 0 67109376 0 0 0 64 0 0 4194304 1024 33554436 1024 16777216 0 256 0 301989888 8521728 819204 0 0 0 0 0 0 0 0 0 134225920 268435456 2072 0 0 0 0 0 0 0 33554432 71434240 8 0 0 32768 268435456 136577024 0 0 0 0 0 2097152 67715072 1073741824 8390656 8388608 12582912 16778240 33554432 136314880 537657352 0 0 0 0 0 0 268435456 0 0 0 0 16777728 1024 2097152 0 0 0 64 0 0 0 2 4096 524417 32 8 0 0 0 0 64 0 0 4194304 0 0 0 0 0 256 0 0 536872960 0 0 0 262144 0 512 1048576 2 2048 131072 0 0 0 4194304 0 0 0 0 0 0 33832960 79692801 648 606076928 67117088 0 32768 0 134479872 67371008 0 524288 1311232 1 2097152 0 0 32768 0 4325380 0 0 134217728 262144 0 0 0 0 0 2097152 1342189568 285212672 0 0 524416 512 0 0 0 0 0 0 0 0 1 2 0 0 0 4096 1090584576 67108864 0 524352 262144 8388608 1073741824 1048576 2684354561 98304 2 2415919268 2048 1342177280 0 0 1024 0 0 0 0 0 0 0 0 0 0 0 2147483648 4194304 268435456 1 0 0 536870912 0 2147483648 1180 0 0 0 0 0 0 0 0 0 2048 131072 0 135266304 67108864 0 2056 1073741824 16 1048576 0 570425352 16386 0 0 0 0 16 0 0 0 0 536871936 537034752 0 4456448 4096 0 1048576 0 0 0 0 2147483648 137216 17825792 32 32768 0 0 0 0 0 0 0 32 134217730 32 1073741824 8421376 393216 16908288 262144 0 0 0 64 67125248 134217728 1 0 0 134217728 512 0 0 0 0 268435456 0 67108864 538968066 0 0 524288 0 0 0 0 8388608 256 2688548868 268435972 2147483656 0 0 0 0 0 33554432 0 2 0 0 134479872 4 0 4096 256 0 0 301989888 8388608 32768 0 19136512 0 0 0 4456448 128 1 0 0 0 16 0 0 0 0 0 0 32768 2147483648 2684354560 16 17047552 6 16 0 0 0 0 0 0 0 0 0 0 0 0 0 0 0 0 0 0 0 0 0 0 0 0 0 0 0 0 0 0 0 0 0 0 268435456 0 0 0 536870912 0 1073741824 0 0 557056 16 4112 0 1048576 0 0 0 33619968 1073160 0 132112 0 8192 16777216 256 64 0 1048576 32 0 0 1073745920 0 0 0 0 4259840 0 132224 0 0 4202496 0 0 8192 4096 128 0 8 0 0 0 0 0 0 0 0 0 0 0 0 0 0 0 0 0 0 0 0 0 0 0 0 0 0 0 0 0 0 0 0 0 0 0 0 0 33570816 71303168 8 34 67117088 0 0 0 0 67108864 0 0 262144 0 0 0 0 0 0 4325376 0 0 134217728 262144 0 0 0 0 0 0 1342177280 0 0 0 0 0 0 0 0 0 0 0 0 0 0 2 32832 4096 131072 0 512 0 131072 1048576 0 0 33554432 0 32768 0 33686528 0 512 0 0 0 65536 2 0 16640 8192 0 16 0 0 8388608 16384 0 524288 134217728 0 0 0 1 0 0 8192 16777472 386 0 1048576 8 0 0 0 0 0 0 0 0 0 0 0 16384 0 2147483648 536870912 0 8388609 0 0 0 0 0 0 1075314688 22784 0 0 0 0 0 16777216 0 270534656 0 0 0 264 0 0 1056768 16793600 136323072 0 106496 33689601 0 0 0 0 0 0 0 0 0 134217728 1081408 32768 131073 64 65536 2148007936 131072 0 0 0 0 0 0 32768 0 0 0 0 0 0 0 0 32768 2056 0 0 5242880 0 0 536870912 0 0 0 45613056 2466 193 0 0 0 0 17829888 0 0 0 0 0 16 0 536870912 512 0 0 536870912 33800 0 0 0 0 0 73728 65537 0 0 0 16640 32768 0 0 8388608 102760448 0 0 0 0 0 0 131072 1073741824 73752 4325632 524800 0 0 0 0 2097152 0 0 0 0 2304 65536 1073741828 0 33554432 0 0 50331648 4 0 0 0 0 0 67108864 1536 0 0 131072 33554432 0 0 0 262144 0 134217728 8 0 262144 6291456 268439682 8 545292288 262176 4 0 0 0 0 0 0 0 0 0 541106176 0 134217728 67109888 279584 1048608 8421888 32768 0 0 0 0 0 0 0 0 0 0 0 0 0 2147484672 0 4194304 13696 67108864 262144 0 553648128 0 0 0 0 4096 32 65536 4122 0 0 0 0 32768 0 0 0 0 0 8 2147483650 44042240 0 75497472 1048640 134219784 0 0 0 0 0 0 0 0 0 0 0 67108864 512 0 32768 0 0 545521664 277414148 8192 64 0 134217728 4096 8 0 0 0 0 0 0 0 0 0 277348352 131072 579076096 16777216 524544 134217729 268435456 0 524288 0 0 0 0 0 0 0 0 0 8192 0 1073872928 0 8388608 139264 1048642 1048576 32 134219776 2155872256 32 0 0 0 0 40960 0 0 0 0 33554432 0 64 32 0 0 536870920 0 262656 0 0 0 0 0 0 64 0 0 0 0 0 0 9216 512 3221258240 536870928 132 8650755 134217792 67109120 516 0 0 33554432 262144 0 0 0 0 4325376 0 0 0 0 524288 393216 131072 64 65536 268435456 0 2097152 589824 0 0 0 0 0 0 131072 0 0 2105344 268435456 160 0 1 0 1048576 0 134219776 268435456 4096 805306368 17039360 0 1048576 64 0 268435456
shrinkage=1


Tree=15
num_leaves=31
num_cat=20
split_feature=1 15 1 14 1 15 1 15 14 6 15 14 14 16 15 15 6 16 3 17 14 15 6 16 16 15 14 17 14 15
split_gain=186.964 178.765 154.77 170.379 250.381 510.041 215.033 628.089 416.454 464.499 381.018 354.976 298.626 673.27 280.169 259.714 244.523 224.881 213.717 208.594 204.162 173.783 381.006 341.633 160.432 157.338 1767.28 321.438 211.323 635.279
threshold=0 1 2 3 4 5 6 7 8 13.850000000000003 9 10 11 3.1549470975624909 12 13 -2.7499999999999996 3.1120207338916885 14767.000000000002 3.3151843912354133 14 15 27.150000000000002 3.1120207338916885 3.1549470975624909 16 17 1.0302818041986408 18 19
decision_type=9 1 9 1 9 1 9 1 1 10 1 1 1 2 1 1 10 2 2 2 1 1 10 2 2 1 1 2 1 1
left_child=1 -1 3 4 5 -2 7 8 10 14 16 -9 18 -14 -10 24 -5 -16 -12 -15 -18 23 -23 -11 -13 26 -7 -28 29 -27
right_child=2 -3 -4 6 -6 25 -8 11 9 21 12 15 13 19 17 -17 20 -19 -20 -21 -22 22 -24 -25 -26 28 27 -29 -30 -31
leaf_value=-0.0043942012960922578 0.2697383518477291 0.041184315475861426 -4.207644297983323e-05 -1.7429867607748344 -0.034412966008145786 0.70684302070697724 -0.011005682529872258 -0.41713558927898303 -0.075688889990631267 -0.49272451622182722 -1.109853967734509 0.31868938491137749 -0.018574697106856129 -2.8193353922475897 -0.63951364360176599 0.2765548092104998 -0.74118937259966822 0.90583459764483376 0.77921621767835247 -1.3933629066771085 0.42713150311989095 -1.1618074575351096 0.04739625054089544 0.78587697043518223 1.1009362412013597 -1.0356990244337332 -0.51107521039436055 -1.5855671144194725 -0.090546776545597285 -0.069013348744500061
leaf_weight=144851 2046 211988 19175533 72 141863 732 167596 642 650 472 90 421 397 126 104 6586 182 996 179 552 676 508 535 375 695 1076 409 872 5092 1836
leaf_count=144851 2046 211988 19175533 72 141863 732 167596 642 650 472 90 421 397 126 104 6586 182 996 179 552 676 508 535 375 695 1076 409 872 5092 1836
